<GAP_2024_8_30_120_8_42_16_201>
<Potential label="GAP_2024_8_30_120_8_42_16_201" init_args="IP GAP label=GAP_2024_8_30_120_8_42_16_201"/>
<GAP_params label="GAP_2024_8_30_120_8_42_16_201" gap_version="1686220958">
  <GAP_data do_core="F">
    <e0 Z="1" value=".00000000000000000E+000"/>
    <e0 Z="2" value=".00000000000000000E+000"/>
    <e0 Z="3" value=".00000000000000000E+000"/>
    <e0 Z="4" value=".00000000000000000E+000"/>
    <e0 Z="5" value=".00000000000000000E+000"/>
    <e0 Z="6" value=".00000000000000000E+000"/>
    <e0 Z="7" value=".00000000000000000E+000"/>
    <e0 Z="8" value=".00000000000000000E+000"/>
    <e0 Z="9" value=".00000000000000000E+000"/>
    <e0 Z="10" value=".00000000000000000E+000"/>
    <e0 Z="11" value=".00000000000000000E+000"/>
    <e0 Z="12" value=".00000000000000000E+000"/>
    <e0 Z="13" value=".00000000000000000E+000"/>
    <e0 Z="14" value=".00000000000000000E+000"/>
    <e0 Z="15" value=".00000000000000000E+000"/>
    <e0 Z="16" value=".00000000000000000E+000"/>
    <e0 Z="17" value=".00000000000000000E+000"/>
    <e0 Z="18" value=".00000000000000000E+000"/>
    <e0 Z="19" value=".00000000000000000E+000"/>
    <e0 Z="20" value=".00000000000000000E+000"/>
    <e0 Z="21" value=".00000000000000000E+000"/>
    <e0 Z="22" value=".00000000000000000E+000"/>
    <e0 Z="23" value=".00000000000000000E+000"/>
    <e0 Z="24" value=".00000000000000000E+000"/>
    <e0 Z="25" value=".00000000000000000E+000"/>
    <e0 Z="26" value=".00000000000000000E+000"/>
    <e0 Z="27" value=".00000000000000000E+000"/>
    <e0 Z="28" value=".00000000000000000E+000"/>
    <e0 Z="29" value=".00000000000000000E+000"/>
    <e0 Z="30" value=".00000000000000000E+000"/>
    <e0 Z="31" value=".00000000000000000E+000"/>
    <e0 Z="32" value=".00000000000000000E+000"/>
    <e0 Z="33" value=".00000000000000000E+000"/>
    <e0 Z="34" value=".00000000000000000E+000"/>
    <e0 Z="35" value=".00000000000000000E+000"/>
    <e0 Z="36" value=".00000000000000000E+000"/>
    <e0 Z="37" value=".00000000000000000E+000"/>
    <e0 Z="38" value=".00000000000000000E+000"/>
    <e0 Z="39" value=".00000000000000000E+000"/>
    <e0 Z="40" value=".00000000000000000E+000"/>
    <e0 Z="41" value=".00000000000000000E+000"/>
    <e0 Z="42" value=".00000000000000000E+000"/>
    <e0 Z="43" value=".00000000000000000E+000"/>
    <e0 Z="44" value=".00000000000000000E+000"/>
    <e0 Z="45" value=".00000000000000000E+000"/>
    <e0 Z="46" value=".00000000000000000E+000"/>
    <e0 Z="47" value=".00000000000000000E+000"/>
    <e0 Z="48" value=".00000000000000000E+000"/>
    <e0 Z="49" value=".00000000000000000E+000"/>
    <e0 Z="50" value=".00000000000000000E+000"/>
    <e0 Z="51" value=".00000000000000000E+000"/>
    <e0 Z="52" value=".00000000000000000E+000"/>
    <e0 Z="53" value=".00000000000000000E+000"/>
    <e0 Z="54" value=".00000000000000000E+000"/>
    <e0 Z="55" value=".00000000000000000E+000"/>
    <e0 Z="56" value=".00000000000000000E+000"/>
    <e0 Z="57" value=".00000000000000000E+000"/>
    <e0 Z="58" value=".00000000000000000E+000"/>
    <e0 Z="59" value=".00000000000000000E+000"/>
    <e0 Z="60" value=".00000000000000000E+000"/>
    <e0 Z="61" value=".00000000000000000E+000"/>
    <e0 Z="62" value=".00000000000000000E+000"/>
    <e0 Z="63" value=".00000000000000000E+000"/>
    <e0 Z="64" value=".00000000000000000E+000"/>
    <e0 Z="65" value=".00000000000000000E+000"/>
    <e0 Z="66" value=".00000000000000000E+000"/>
    <e0 Z="67" value=".00000000000000000E+000"/>
    <e0 Z="68" value=".00000000000000000E+000"/>
    <e0 Z="69" value=".00000000000000000E+000"/>
    <e0 Z="70" value=".00000000000000000E+000"/>
    <e0 Z="71" value=".00000000000000000E+000"/>
    <e0 Z="72" value=".00000000000000000E+000"/>
    <e0 Z="73" value=".00000000000000000E+000"/>
    <e0 Z="74" value=".00000000000000000E+000"/>
    <e0 Z="75" value=".00000000000000000E+000"/>
    <e0 Z="76" value=".00000000000000000E+000"/>
    <e0 Z="77" value=".00000000000000000E+000"/>
    <e0 Z="78" value=".00000000000000000E+000"/>
    <e0 Z="79" value=".00000000000000000E+000"/>
    <e0 Z="80" value=".00000000000000000E+000"/>
    <e0 Z="81" value=".00000000000000000E+000"/>
    <e0 Z="82" value=".00000000000000000E+000"/>
    <e0 Z="83" value=".00000000000000000E+000"/>
    <e0 Z="84" value=".00000000000000000E+000"/>
    <e0 Z="85" value=".00000000000000000E+000"/>
    <e0 Z="86" value=".00000000000000000E+000"/>
    <e0 Z="87" value=".00000000000000000E+000"/>
    <e0 Z="88" value=".00000000000000000E+000"/>
    <e0 Z="89" value=".00000000000000000E+000"/>
    <e0 Z="90" value=".00000000000000000E+000"/>
    <e0 Z="91" value=".00000000000000000E+000"/>
    <e0 Z="92" value=".00000000000000000E+000"/>
    <e0 Z="93" value=".00000000000000000E+000"/>
    <e0 Z="94" value=".00000000000000000E+000"/>
    <e0 Z="95" value=".00000000000000000E+000"/>
    <e0 Z="96" value=".00000000000000000E+000"/>
    <e0 Z="97" value=".00000000000000000E+000"/>
    <e0 Z="98" value=".00000000000000000E+000"/>
    <e0 Z="99" value=".00000000000000000E+000"/>
    <e0 Z="100" value=".00000000000000000E+000"/>
    <e0 Z="101" value=".00000000000000000E+000"/>
    <e0 Z="102" value=".00000000000000000E+000"/>
    <e0 Z="103" value=".00000000000000000E+000"/>
    <e0 Z="104" value=".00000000000000000E+000"/>
    <e0 Z="105" value=".00000000000000000E+000"/>
    <e0 Z="106" value=".00000000000000000E+000"/>
    <e0 Z="107" value=".00000000000000000E+000"/>
    <e0 Z="108" value=".00000000000000000E+000"/>
    <e0 Z="109" value=".00000000000000000E+000"/>
    <e0 Z="110" value=".00000000000000000E+000"/>
    <e0 Z="111" value=".00000000000000000E+000"/>
    <e0 Z="112" value=".00000000000000000E+000"/>
    <e0 Z="113" value=".00000000000000000E+000"/>
    <e0 Z="114" value=".00000000000000000E+000"/>
    <e0 Z="115" value=".00000000000000000E+000"/>
    <e0 Z="116" value=".00000000000000000E+000"/>
    <e0 Z="117" value=".00000000000000000E+000"/>
    <e0 Z="118" value=".00000000000000000E+000"/>
  </GAP_data>
  <gpSparse label="GAP_2024_8_30_120_8_42_16_201" n_coordinate="9" fitted="T">
    <gpCoordinates label="GAP_2024_8_30_120_8_42_16_2011" dimensions="1" signal_variance="5.0000000000000000" signal_mean=".00000000000000000E+000" sparsified="T" n_permutations="2" covariance_type="1" n_sparseX="15" sparseX_filename="GAP.xml.sparseX.GAP_2024_8_30_120_8_42_16_2011" sparseX_md5sum="85edbef51be64201360b86e5069f6689">
      <theta>  0.20000000000000000E+001 </theta>
      <descriptor>distance_Nb order=2 cutoff=4.5 n_sparse=15 covariance_type=ard_se delta=5 theta_uniform=2.0 sparse_method=uniform compact_clusters=T Z={14 14 }</descriptor>
      <permutation i="1">1  </permutation>
      <permutation i="2">1  </permutation>
      <sparseX i="1" alpha="44335.046912438484" sparseCutoff="1.0000000000000000"/>
      <sparseX i="2" alpha="-230197.06245703742" sparseCutoff="1.0000000000000000"/>
      <sparseX i="3" alpha="168712.62182016586" sparseCutoff="1.0000000000000000"/>
      <sparseX i="4" alpha="-20834.280372065579" sparseCutoff="1.0000000000000000"/>
      <sparseX i="5" alpha="-205940.50228332702" sparseCutoff="1.0000000000000000"/>
      <sparseX i="6" alpha="16886.819256823954" sparseCutoff="1.0000000000000000"/>
      <sparseX i="7" alpha="-72801.265975694259" sparseCutoff="1.0000000000000000"/>
      <sparseX i="8" alpha="267893.77228994202" sparseCutoff="1.0000000000000000"/>
      <sparseX i="9" alpha="84491.414304231046" sparseCutoff="1.0000000000000000"/>
      <sparseX i="10" alpha="-203356.72421993787" sparseCutoff=".15512972358057592"/>
      <sparseX i="11" alpha="85911.056571993613" sparseCutoff="1.0000000000000000"/>
      <sparseX i="12" alpha="-32580.612155307022" sparseCutoff=".13395522492094469E-001"/>
      <sparseX i="13" alpha="109355.48383460325" sparseCutoff=".81447862900637547"/>
      <sparseX i="14" alpha="-99863.053089498906" sparseCutoff="1.0000000000000000"/>
      <sparseX i="15" alpha="-95664.324739379546" sparseCutoff="1.0000000000000000"/>
    </gpCoordinates>
    <gpCoordinates label="GAP_2024_8_30_120_8_42_16_2012" dimensions="1" signal_variance="5.0000000000000000" signal_mean=".00000000000000000E+000" sparsified="T" n_permutations="1" covariance_type="1" n_sparseX="15" sparseX_filename="GAP.xml.sparseX.GAP_2024_8_30_120_8_42_16_2012" sparseX_md5sum="dbfba3e0f956b6d72338e8875676b70c">
      <theta>  0.20000000000000000E+001 </theta>
      <descriptor>distance_Nb order=2 cutoff=4.5 n_sparse=15 covariance_type=ard_se delta=5 theta_uniform=2.0 sparse_method=uniform compact_clusters=T Z={6 14 }</descriptor>
      <permutation i="1">1  </permutation>
      <sparseX i="1" alpha="709199.17171699076" sparseCutoff="1.0000000000000000"/>
      <sparseX i="2" alpha="2102.0026274845645" sparseCutoff="1.0000000000000000"/>
      <sparseX i="3" alpha="643459.94275998580" sparseCutoff="1.0000000000000000"/>
      <sparseX i="4" alpha="-655898.56773908518" sparseCutoff="1.0000000000000000"/>
      <sparseX i="5" alpha="-421896.06463735516" sparseCutoff="1.0000000000000000"/>
      <sparseX i="6" alpha="-23249.947626402398" sparseCutoff="1.0000000000000000"/>
      <sparseX i="7" alpha="936635.65937697666" sparseCutoff="1.0000000000000000"/>
      <sparseX i="8" alpha="421044.47840647702" sparseCutoff=".48398644353957521E-001"/>
      <sparseX i="9" alpha="832465.96818409045" sparseCutoff="1.0000000000000000"/>
      <sparseX i="10" alpha="-2751.6705792759058" sparseCutoff=".21754222882732338"/>
      <sparseX i="11" alpha="-622689.92533796863" sparseCutoff="1.0000000000000000"/>
      <sparseX i="12" alpha="-434064.48012746486" sparseCutoff="1.0000000000000000"/>
      <sparseX i="13" alpha="-267894.31048148434" sparseCutoff="1.0000000000000000"/>
      <sparseX i="14" alpha="166137.74621263065" sparseCutoff="1.0000000000000000"/>
      <sparseX i="15" alpha="-884007.87552640354" sparseCutoff="1.0000000000000000"/>
    </gpCoordinates>
    <gpCoordinates label="GAP_2024_8_30_120_8_42_16_2013" dimensions="1" signal_variance="5.0000000000000000" signal_mean=".00000000000000000E+000" sparsified="T" n_permutations="2" covariance_type="1" n_sparseX="15" sparseX_filename="GAP.xml.sparseX.GAP_2024_8_30_120_8_42_16_2013" sparseX_md5sum="f8e551f7e3518703aed7c4b7694ad283">
      <theta>  0.20000000000000000E+001 </theta>
      <descriptor>distance_Nb order=2 cutoff=4.5 n_sparse=15 covariance_type=ard_se delta=5 theta_uniform=2.0 sparse_method=uniform compact_clusters=T Z={6 6 }</descriptor>
      <permutation i="1">1  </permutation>
      <permutation i="2">1  </permutation>
      <sparseX i="1" alpha="1438464.9829213687" sparseCutoff="1.0000000000000000"/>
      <sparseX i="2" alpha="-2340334.4845647993" sparseCutoff="1.0000000000000000"/>
      <sparseX i="3" alpha="544804.24639175541" sparseCutoff="1.0000000000000000"/>
      <sparseX i="4" alpha="1050761.1570156862" sparseCutoff="1.0000000000000000"/>
      <sparseX i="5" alpha="-972988.85109336348" sparseCutoff="1.0000000000000000"/>
      <sparseX i="6" alpha="-50878.667364985100" sparseCutoff="1.0000000000000000"/>
      <sparseX i="7" alpha="-975382.75163409638" sparseCutoff="1.0000000000000000"/>
      <sparseX i="8" alpha="878793.18603900599" sparseCutoff="1.0000000000000000"/>
      <sparseX i="9" alpha="-770057.94432945887" sparseCutoff="1.0000000000000000"/>
      <sparseX i="10" alpha="370196.36936991586" sparseCutoff=".15511053350033954"/>
      <sparseX i="11" alpha="243893.45161113891" sparseCutoff=".19735716605701981"/>
      <sparseX i="12" alpha="-1143406.0697261062" sparseCutoff="1.0000000000000000"/>
      <sparseX i="13" alpha="1276488.9093273580" sparseCutoff="1.0000000000000000"/>
      <sparseX i="14" alpha="-458371.13792362454" sparseCutoff=".92783485738530114"/>
      <sparseX i="15" alpha="1383555.4000660572" sparseCutoff="1.0000000000000000"/>
    </gpCoordinates>
    <gpCoordinates label="GAP_2024_8_30_120_8_42_16_2014" dimensions="3" signal_variance=".29999999999999999" signal_mean=".00000000000000000E+000" sparsified="T" n_permutations="6" covariance_type="1" n_sparseX="200" sparseX_filename="GAP.xml.sparseX.GAP_2024_8_30_120_8_42_16_2014" sparseX_md5sum="4ad1a1ff18bd67a98d8fb4269ab663b7">
      <theta>  0.20000000000000000E+001  0.20000000000000000E+001  0.20000000000000000E+001 </theta>
      <descriptor> distance_Nb order=3 cutoff=3.5 n_sparse=200 covariance_type=ard_se delta=0.3 theta_uniform=2.0 sparse_method=uniform compact_clusters=T Z={14 14 14 }</descriptor>
      <permutation i="1">1 2 3  </permutation>
      <permutation i="2">2 1 3  </permutation>
      <permutation i="3">1 3 2  </permutation>
      <permutation i="4">3 1 2  </permutation>
      <permutation i="5">2 3 1  </permutation>
      <permutation i="6">3 2 1  </permutation>
      <sparseX i="1" alpha="-7123.5364193637342" sparseCutoff=".88554006192199974"/>
      <sparseX i="2" alpha="14096.831787505531" sparseCutoff=".86369156889060394"/>
      <sparseX i="3" alpha="15906.572982824680" sparseCutoff=".85813627361840239"/>
      <sparseX i="4" alpha="-2935.8063459913560" sparseCutoff=".66784168212817008"/>
      <sparseX i="5" alpha="18744.465550925055" sparseCutoff=".11926053808939641"/>
      <sparseX i="6" alpha="38266.372811607092" sparseCutoff=".11926053808939641"/>
      <sparseX i="7" alpha="18226.257493374018" sparseCutoff=".25530986771385827"/>
      <sparseX i="8" alpha="-41020.075990560646" sparseCutoff=".25536071195050608"/>
      <sparseX i="9" alpha="10835.680375373055" sparseCutoff=".25547757209722455"/>
      <sparseX i="10" alpha="-58637.898993968702" sparseCutoff=".11936437851565823"/>
      <sparseX i="11" alpha="18254.544373444402" sparseCutoff=".25547909272431274"/>
      <sparseX i="12" alpha="-41103.132347591149" sparseCutoff=".25547909272431274"/>
      <sparseX i="13" alpha="10830.214293035902" sparseCutoff=".25570153896105191"/>
      <sparseX i="14" alpha="24585.067856006590" sparseCutoff=".40003846161832235"/>
      <sparseX i="15" alpha="-52103.942653272883" sparseCutoff="1.0000000000000000"/>
      <sparseX i="16" alpha="-12879.985913413675" sparseCutoff="1.0000000000000000"/>
      <sparseX i="17" alpha="-31302.851906259901" sparseCutoff=".99706283922559091"/>
      <sparseX i="18" alpha="-19059.973115626966" sparseCutoff=".99705205259601137"/>
      <sparseX i="19" alpha="26835.352071153960" sparseCutoff=".99703184021972369"/>
      <sparseX i="20" alpha="-31064.473260147577" sparseCutoff=".99703126609043902"/>
      <sparseX i="21" alpha="-18328.362982721254" sparseCutoff=".99703126609043902"/>
      <sparseX i="22" alpha="27128.111934555342" sparseCutoff=".99703126609043902"/>
      <sparseX i="23" alpha="4419.0664169489228" sparseCutoff="1.0000000000000000"/>
      <sparseX i="24" alpha="12596.991250014986" sparseCutoff=".16924810577625959"/>
      <sparseX i="25" alpha="8019.0785354815880" sparseCutoff=".16933278932746748"/>
      <sparseX i="26" alpha="2118.2926109228215" sparseCutoff=".28659253839484297E-001"/>
      <sparseX i="27" alpha="12554.519142531375" sparseCutoff=".16906904879970097"/>
      <sparseX i="28" alpha="7991.4619398190835" sparseCutoff=".16906904879970097"/>
      <sparseX i="29" alpha="198.81499294236517" sparseCutoff=".25505015138442738"/>
      <sparseX i="30" alpha="-123933.98108926474" sparseCutoff=".25505015138442738"/>
      <sparseX i="31" alpha="-294.15331184034994" sparseCutoff=".25637493713733395"/>
      <sparseX i="32" alpha="22485.082235387512" sparseCutoff="1.0000000000000000"/>
      <sparseX i="33" alpha="309.71591303765462" sparseCutoff="1.0000000000000000"/>
      <sparseX i="34" alpha="22804.530982750624" sparseCutoff="1.0000000000000000"/>
      <sparseX i="35" alpha="-59.655171752016166" sparseCutoff=".25505015138442738"/>
      <sparseX i="36" alpha="-124152.99473533542" sparseCutoff=".25637493713733395"/>
      <sparseX i="37" alpha="-191.72364287675151" sparseCutoff=".25642064877502946"/>
      <sparseX i="38" alpha="2480.0934903095126" sparseCutoff=".49802744092601731"/>
      <sparseX i="39" alpha="18388.832608552915" sparseCutoff=".44938687090471352"/>
      <sparseX i="40" alpha="-16368.702534757937" sparseCutoff=".95107327745548820"/>
      <sparseX i="41" alpha="19634.127376911572" sparseCutoff=".94202451880640825"/>
      <sparseX i="42" alpha="21775.244735117816" sparseCutoff=".92796470635213590"/>
      <sparseX i="43" alpha="5899.5805771138503" sparseCutoff=".88814624814604404"/>
      <sparseX i="44" alpha="78643.260108154442" sparseCutoff=".91762875556576140"/>
      <sparseX i="45" alpha="5900.8850290344462" sparseCutoff=".88814624814604404"/>
      <sparseX i="46" alpha="122694.83276656228" sparseCutoff=".94245273090899984"/>
      <sparseX i="47" alpha="-270.99537412637449" sparseCutoff=".89399708551011048"/>
      <sparseX i="48" alpha="51926.385494932307" sparseCutoff=".92879708073416012"/>
      <sparseX i="49" alpha="3759.2558050452903" sparseCutoff=".87383645956794731"/>
      <sparseX i="50" alpha="-275.02520646943577" sparseCutoff=".89399708551011048"/>
      <sparseX i="51" alpha="-10994.974332644346" sparseCutoff=".94388330907868245"/>
      <sparseX i="52" alpha="969.60393187880663" sparseCutoff=".40643892747783912E-001"/>
      <sparseX i="53" alpha="-2646.6516990332502" sparseCutoff=".30626056075859220E-002"/>
      <sparseX i="54" alpha="286.89602892670376" sparseCutoff=".30626056075859220E-002"/>
      <sparseX i="55" alpha="-2579.4363461414700" sparseCutoff=".30626056075859220E-002"/>
      <sparseX i="56" alpha="9447.1933867554635" sparseCutoff=".78978195628428882"/>
      <sparseX i="57" alpha="18901.133536724501" sparseCutoff="1.0000000000000000"/>
      <sparseX i="58" alpha="-85845.121503122398" sparseCutoff=".51643165174025230"/>
      <sparseX i="59" alpha="-3912.8902268123038" sparseCutoff="1.0000000000000000"/>
      <sparseX i="60" alpha="8124.8253100772326" sparseCutoff=".10554850109680941"/>
      <sparseX i="61" alpha="48269.161280641478" sparseCutoff=".51643165174025230"/>
      <sparseX i="62" alpha="8998.2567995699410" sparseCutoff="1.0000000000000000"/>
      <sparseX i="63" alpha="5694.6877746270575" sparseCutoff=".10554850109680941"/>
      <sparseX i="64" alpha="-24993.008028689663" sparseCutoff=".92423566400324719"/>
      <sparseX i="65" alpha="18098.591759265524" sparseCutoff=".92573932576719975"/>
      <sparseX i="66" alpha="-3064.1148430283210" sparseCutoff=".91566132249506693"/>
      <sparseX i="67" alpha="50994.129742879479" sparseCutoff=".93382140195278340"/>
      <sparseX i="68" alpha="32621.563211764929" sparseCutoff=".93186918526647433"/>
      <sparseX i="69" alpha="-3071.9005382560754" sparseCutoff=".91566132249506693"/>
      <sparseX i="70" alpha="-22415.317189058838" sparseCutoff=".92561380112340164"/>
      <sparseX i="71" alpha="5283.6896041778182" sparseCutoff=".96088539133563841E-001"/>
      <sparseX i="72" alpha="6764.2074737234461" sparseCutoff="1.0000000000000000"/>
      <sparseX i="73" alpha="3956.7602781953151" sparseCutoff="1.0000000000000000"/>
      <sparseX i="74" alpha="13744.732918232316" sparseCutoff="1.0000000000000000"/>
      <sparseX i="75" alpha="-901.89157618318268" sparseCutoff="1.0000000000000000"/>
      <sparseX i="76" alpha="-17042.558290344306" sparseCutoff=".44882362973130252E-001"/>
      <sparseX i="77" alpha="-10112.140859777464" sparseCutoff=".44882362973130252E-001"/>
      <sparseX i="78" alpha="31295.750282673693" sparseCutoff="1.0000000000000000"/>
      <sparseX i="79" alpha="-574.11800146374992" sparseCutoff=".93845509991691278E-003"/>
      <sparseX i="80" alpha="-56423.009384686709" sparseCutoff="1.0000000000000000"/>
      <sparseX i="81" alpha="-51795.368913382292" sparseCutoff="1.0000000000000000"/>
      <sparseX i="82" alpha="14791.756380067467" sparseCutoff="1.0000000000000000"/>
      <sparseX i="83" alpha="-1563.1426214358821" sparseCutoff=".20678888963287845E-001"/>
      <sparseX i="84" alpha="-35354.315062251080" sparseCutoff=".79088157749097354"/>
      <sparseX i="85" alpha="-1951.1745719311098" sparseCutoff=".88528441608879879E-003"/>
      <sparseX i="86" alpha="-49955.953735099218" sparseCutoff=".93993104771324409"/>
      <sparseX i="87" alpha="-40708.925480974191" sparseCutoff=".94158681528880950"/>
      <sparseX i="88" alpha="-5654.0066599536276" sparseCutoff=".23232713828833688E-001"/>
      <sparseX i="89" alpha="-60624.455213152381" sparseCutoff="1.0000000000000000"/>
      <sparseX i="90" alpha="-17163.794071886827" sparseCutoff=".15502023859745917"/>
      <sparseX i="91" alpha="-695.05184663710497" sparseCutoff=".15502023859745917"/>
      <sparseX i="92" alpha="-20911.142784393687" sparseCutoff=".23364516696215465"/>
      <sparseX i="93" alpha="13585.330789525875" sparseCutoff="1.0000000000000000"/>
      <sparseX i="94" alpha="-787.56587673893830" sparseCutoff=".36830193740351242E-003"/>
      <sparseX i="95" alpha="118.98645751094250" sparseCutoff=".83677673549376608E-002"/>
      <sparseX i="96" alpha="119.01580193488012" sparseCutoff=".83677673549376608E-002"/>
      <sparseX i="97" alpha="211.33792533025996" sparseCutoff=".96222213203350115E-001"/>
      <sparseX i="98" alpha="210.41867885685875" sparseCutoff=".96222213203350115E-001"/>
      <sparseX i="99" alpha="13814.299195019443" sparseCutoff="1.0000000000000000"/>
      <sparseX i="100" alpha="21699.784015579466" sparseCutoff="1.0000000000000000"/>
      <sparseX i="101" alpha="28286.888862707881" sparseCutoff=".37584922002623189"/>
      <sparseX i="102" alpha="89268.797864679669" sparseCutoff="1.0000000000000000"/>
      <sparseX i="103" alpha="6470.9793640718390" sparseCutoff=".74044224104430956E-001"/>
      <sparseX i="104" alpha="13962.365863973759" sparseCutoff="1.0000000000000000"/>
      <sparseX i="105" alpha="-44104.648744636252" sparseCutoff=".89061980259574380"/>
      <sparseX i="106" alpha="-50477.889167263151" sparseCutoff="1.0000000000000000"/>
      <sparseX i="107" alpha="-4384.4358945822769" sparseCutoff="1.0000000000000000"/>
      <sparseX i="108" alpha="-17798.812188221465" sparseCutoff="1.0000000000000000"/>
      <sparseX i="109" alpha="-2303.8131165178424" sparseCutoff="1.0000000000000000"/>
      <sparseX i="110" alpha="74.658640514177961" sparseCutoff=".17427695757810668E-002"/>
      <sparseX i="111" alpha="16039.100773691976" sparseCutoff=".84216160566982279"/>
      <sparseX i="112" alpha="-19287.890697527033" sparseCutoff="1.0000000000000000"/>
      <sparseX i="113" alpha="18325.835247635499" sparseCutoff="1.0000000000000000"/>
      <sparseX i="114" alpha="7970.6785334574552" sparseCutoff="1.0000000000000000"/>
      <sparseX i="115" alpha="12685.209828562562" sparseCutoff=".84716603956978742"/>
      <sparseX i="116" alpha="30761.878756080619" sparseCutoff="1.0000000000000000"/>
      <sparseX i="117" alpha="-51796.122575863003" sparseCutoff=".41739481224500818"/>
      <sparseX i="118" alpha="-90130.291793847486" sparseCutoff="1.0000000000000000"/>
      <sparseX i="119" alpha="26792.505373433534" sparseCutoff="1.0000000000000000"/>
      <sparseX i="120" alpha="62961.054571634799" sparseCutoff=".99988447523520185"/>
      <sparseX i="121" alpha="12123.700657848756" sparseCutoff=".29932723894811919"/>
      <sparseX i="122" alpha="-14.129857789785206" sparseCutoff=".25257422865532231E-003"/>
      <sparseX i="123" alpha="-25670.494974445890" sparseCutoff="1.0000000000000000"/>
      <sparseX i="124" alpha="-8028.0477520873974" sparseCutoff="1.0000000000000000"/>
      <sparseX i="125" alpha="57353.223983147829" sparseCutoff="1.0000000000000000"/>
      <sparseX i="126" alpha="-48411.354779018897" sparseCutoff="1.0000000000000000"/>
      <sparseX i="127" alpha="-8031.0002098607101" sparseCutoff="1.0000000000000000"/>
      <sparseX i="128" alpha="57355.055714193855" sparseCutoff="1.0000000000000000"/>
      <sparseX i="129" alpha="-48416.074266651645" sparseCutoff="1.0000000000000000"/>
      <sparseX i="130" alpha="2.5446466160810708" sparseCutoff=".63515885815934592E-004"/>
      <sparseX i="131" alpha="-4000.8487267914907" sparseCutoff=".29683660018431424E-001"/>
      <sparseX i="132" alpha="-7779.7285893420494" sparseCutoff="1.0000000000000000"/>
      <sparseX i="133" alpha="-7782.9117337799753" sparseCutoff="1.0000000000000000"/>
      <sparseX i="134" alpha="3242.0632423605880" sparseCutoff=".36776827263009348E-001"/>
      <sparseX i="135" alpha="-36952.460168641242" sparseCutoff="1.0000000000000000"/>
      <sparseX i="136" alpha="76910.886605159074" sparseCutoff="1.0000000000000000"/>
      <sparseX i="137" alpha="16731.742196542356" sparseCutoff=".84184244285279819"/>
      <sparseX i="138" alpha="-81797.274194154059" sparseCutoff="1.0000000000000000"/>
      <sparseX i="139" alpha="31524.791572264323" sparseCutoff="1.0000000000000000"/>
      <sparseX i="140" alpha="-488.50454658934154" sparseCutoff=".44636063889243053E-002"/>
      <sparseX i="141" alpha="-22462.132812609227" sparseCutoff=".64501460737314420"/>
      <sparseX i="142" alpha="-29450.788644138953" sparseCutoff="1.0000000000000000"/>
      <sparseX i="143" alpha="6967.1397294467879" sparseCutoff="1.0000000000000000"/>
      <sparseX i="144" alpha="-428.63976328285844" sparseCutoff=".37792227951718382E-001"/>
      <sparseX i="145" alpha="-709.71856449815391" sparseCutoff=".32668773173886168E-002"/>
      <sparseX i="146" alpha="59122.608389935813" sparseCutoff=".24349029585466886"/>
      <sparseX i="147" alpha="110682.11196462312" sparseCutoff="1.0000000000000000"/>
      <sparseX i="148" alpha="-77399.069730893432" sparseCutoff="1.0000000000000000"/>
      <sparseX i="149" alpha="-4550.9569040659944" sparseCutoff=".60611487472201386"/>
      <sparseX i="150" alpha="-38876.946861111406" sparseCutoff="1.0000000000000000"/>
      <sparseX i="151" alpha="-38377.634351326444" sparseCutoff="1.0000000000000000"/>
      <sparseX i="152" alpha="-55491.106523882605" sparseCutoff="1.0000000000000000"/>
      <sparseX i="153" alpha="-1887.9881196256536" sparseCutoff="1.0000000000000000"/>
      <sparseX i="154" alpha="-34798.890750563049" sparseCutoff="1.0000000000000000"/>
      <sparseX i="155" alpha="-500.12191731791017" sparseCutoff="1.0000000000000000"/>
      <sparseX i="156" alpha="43325.677244386265" sparseCutoff=".78444112706835767E-001"/>
      <sparseX i="157" alpha="57349.009896827003" sparseCutoff="1.0000000000000000"/>
      <sparseX i="158" alpha="42102.891257989773" sparseCutoff="1.0000000000000000"/>
      <sparseX i="159" alpha="5202.1899107862446" sparseCutoff=".67679912633034023E-001"/>
      <sparseX i="160" alpha="-5810.7034443116499" sparseCutoff=".16302191957633588"/>
      <sparseX i="161" alpha="3206.6852824941934" sparseCutoff=".33452317492242245"/>
      <sparseX i="162" alpha="49469.558572073496" sparseCutoff="1.0000000000000000"/>
      <sparseX i="163" alpha="19730.820422641391" sparseCutoff="1.0000000000000000"/>
      <sparseX i="164" alpha=".35883449998343953" sparseCutoff=".21449278733300800E-005"/>
      <sparseX i="165" alpha="29243.493155605520" sparseCutoff=".98910420541374566"/>
      <sparseX i="166" alpha="75940.350272915050" sparseCutoff="1.0000000000000000"/>
      <sparseX i="167" alpha="-138275.16755247785" sparseCutoff="1.0000000000000000"/>
      <sparseX i="168" alpha="34696.458730447812" sparseCutoff="1.0000000000000000"/>
      <sparseX i="169" alpha="75263.301584042958" sparseCutoff=".87845032230427145"/>
      <sparseX i="170" alpha="-6279.5578552383058" sparseCutoff=".15669736269191559"/>
      <sparseX i="171" alpha="-72711.442369770186" sparseCutoff=".71710295316570083E-001"/>
      <sparseX i="172" alpha="32385.215747448088" sparseCutoff="1.0000000000000000"/>
      <sparseX i="173" alpha="-63795.757375267021" sparseCutoff=".99938841534519884"/>
      <sparseX i="174" alpha="32.350096224986913" sparseCutoff=".97559435742593660E-003"/>
      <sparseX i="175" alpha="-48610.878334199886" sparseCutoff="1.0000000000000000"/>
      <sparseX i="176" alpha="28325.429721031072" sparseCutoff=".50607154139669741"/>
      <sparseX i="177" alpha="2488.4798480956961" sparseCutoff=".52364890121782949E-001"/>
      <sparseX i="178" alpha="8751.0143100211117" sparseCutoff=".22364763368279089"/>
      <sparseX i="179" alpha="-23773.751706658470" sparseCutoff="1.0000000000000000"/>
      <sparseX i="180" alpha="-243.71405346547212" sparseCutoff=".12780455085381920E-002"/>
      <sparseX i="181" alpha="-24987.295430836279" sparseCutoff="1.0000000000000000"/>
      <sparseX i="182" alpha="37059.887923919800" sparseCutoff=".36960336395967663"/>
      <sparseX i="183" alpha="10410.674149186267" sparseCutoff=".56159258388969735"/>
      <sparseX i="184" alpha="-18914.632682443669" sparseCutoff=".10325233578167670E-001"/>
      <sparseX i="185" alpha="19156.839247585609" sparseCutoff=".29515892106504427"/>
      <sparseX i="186" alpha="33969.143675807609" sparseCutoff=".44983136045551431"/>
      <sparseX i="187" alpha="-13877.146453507541" sparseCutoff=".83017675493749710"/>
      <sparseX i="188" alpha="2870.7143790747773" sparseCutoff=".15529643448251439E-001"/>
      <sparseX i="189" alpha="-45806.524174281018" sparseCutoff="1.0000000000000000"/>
      <sparseX i="190" alpha="8873.1803238446846" sparseCutoff=".86329944120266344E-001"/>
      <sparseX i="191" alpha="-32075.403523635683" sparseCutoff="1.0000000000000000"/>
      <sparseX i="192" alpha="8438.7902051300516" sparseCutoff="1.0000000000000000"/>
      <sparseX i="193" alpha="-41790.668302080296" sparseCutoff="1.0000000000000000"/>
      <sparseX i="194" alpha="-5152.0699223023739" sparseCutoff=".36076918959138081E-001"/>
      <sparseX i="195" alpha="43823.550081834903" sparseCutoff="1.0000000000000000"/>
      <sparseX i="196" alpha="10998.023412950413" sparseCutoff=".43137854858113266E-002"/>
      <sparseX i="197" alpha="615.21047101661600" sparseCutoff="1.0000000000000000"/>
      <sparseX i="198" alpha="41533.888577192622" sparseCutoff=".71229969748363686"/>
      <sparseX i="199" alpha="5759.5580631196999" sparseCutoff=".86804065429143193E-001"/>
      <sparseX i="200" alpha="-23255.304267037991" sparseCutoff=".96799911224127588"/>
    </gpCoordinates>
    <gpCoordinates label="GAP_2024_8_30_120_8_42_16_2015" dimensions="3" signal_variance=".29999999999999999" signal_mean=".00000000000000000E+000" sparsified="T" n_permutations="2" covariance_type="1" n_sparseX="200" sparseX_filename="GAP.xml.sparseX.GAP_2024_8_30_120_8_42_16_2015" sparseX_md5sum="16615a2f28f257b158017c290eee45ad">
      <theta>  0.20000000000000000E+001  0.20000000000000000E+001  0.20000000000000000E+001 </theta>
      <descriptor> distance_Nb order=3 cutoff=3.5 n_sparse=200 covariance_type=ard_se delta=0.3 theta_uniform=2.0 sparse_method=uniform compact_clusters=T Z={6 14 14 }</descriptor>
      <permutation i="1">1 2 3  </permutation>
      <permutation i="2">2 1 3  </permutation>
      <sparseX i="1" alpha="113307.07942004991" sparseCutoff=".71811757672299537"/>
      <sparseX i="2" alpha="-57987.877826462354" sparseCutoff=".68704436539635960"/>
      <sparseX i="3" alpha="120075.30277872048" sparseCutoff=".68695055134718297"/>
      <sparseX i="4" alpha="-171400.34097227012" sparseCutoff=".95024817910660642"/>
      <sparseX i="5" alpha="-4229.7464397888507" sparseCutoff=".90913059134768681"/>
      <sparseX i="6" alpha="-51316.908577280585" sparseCutoff=".90900645202524955"/>
      <sparseX i="7" alpha="-58699.629776135713" sparseCutoff="1.0000000000000000"/>
      <sparseX i="8" alpha="-72729.877937650483" sparseCutoff=".75571581457609005"/>
      <sparseX i="9" alpha="-2537.7138506659890" sparseCutoff=".21912612459886690E-002"/>
      <sparseX i="10" alpha="-7002.1018296853663" sparseCutoff=".28313671659288089E-002"/>
      <sparseX i="11" alpha="7342.8461075849145" sparseCutoff=".30479540405547456E-002"/>
      <sparseX i="12" alpha="3678.3885992854143" sparseCutoff=".27697746871624064E-002"/>
      <sparseX i="13" alpha="3350.6662435295057" sparseCutoff=".30660670972954551E-002"/>
      <sparseX i="14" alpha="100.57570869168356" sparseCutoff=".23031486104201698E-002"/>
      <sparseX i="15" alpha="5500.2780358241116" sparseCutoff=".30660670972954551E-002"/>
      <sparseX i="16" alpha="-4166.5426194692673" sparseCutoff=".30660670972954551E-002"/>
      <sparseX i="17" alpha="5481.5006505322626" sparseCutoff=".30660670972954551E-002"/>
      <sparseX i="18" alpha="-4140.7809050573524" sparseCutoff=".30479540405547456E-002"/>
      <sparseX i="19" alpha="3329.8167473800031" sparseCutoff=".30479540405547456E-002"/>
      <sparseX i="20" alpha="430.06793574816840" sparseCutoff=".35153888498259084E-004"/>
      <sparseX i="21" alpha="-224.09550341640391" sparseCutoff=".35737354486011041E-004"/>
      <sparseX i="22" alpha="-338.43624261975424" sparseCutoff=".35565985108796134E-004"/>
      <sparseX i="23" alpha="-1707.1304252868135" sparseCutoff=".16249360395492344E-003"/>
      <sparseX i="24" alpha="-13984.176636234493" sparseCutoff=".39109058922910771E-002"/>
      <sparseX i="25" alpha="-33755.449813195759" sparseCutoff=".34519094425922958"/>
      <sparseX i="26" alpha="58322.403240872576" sparseCutoff=".52890829268853623"/>
      <sparseX i="27" alpha="-64562.988831175498" sparseCutoff="1.0000000000000000"/>
      <sparseX i="28" alpha="135706.53128259152" sparseCutoff="1.0000000000000000"/>
      <sparseX i="29" alpha="29946.622267351941" sparseCutoff="1.0000000000000000"/>
      <sparseX i="30" alpha="-114416.94354110051" sparseCutoff=".16924810577625959"/>
      <sparseX i="31" alpha="4401.2503870639794" sparseCutoff=".16920283073055614"/>
      <sparseX i="32" alpha="58400.336402115543" sparseCutoff=".18045580378088699"/>
      <sparseX i="33" alpha="60834.489227684993" sparseCutoff="1.0000000000000000"/>
      <sparseX i="34" alpha="115742.20740005592" sparseCutoff="1.0000000000000000"/>
      <sparseX i="35" alpha="68238.458227054027" sparseCutoff="1.0000000000000000"/>
      <sparseX i="36" alpha="-161193.84359222007" sparseCutoff="1.0000000000000000"/>
      <sparseX i="37" alpha="-34309.638188631106" sparseCutoff=".12890768017091492E-001"/>
      <sparseX i="38" alpha="94125.149520295206" sparseCutoff=".24646478993943489E-001"/>
      <sparseX i="39" alpha="290021.44983177568" sparseCutoff=".19571999721551223"/>
      <sparseX i="40" alpha="-192005.48276019489" sparseCutoff=".66222267412866664"/>
      <sparseX i="41" alpha="-42180.977890128401" sparseCutoff=".81329455224575975"/>
      <sparseX i="42" alpha="-85474.477029621252" sparseCutoff="1.0000000000000000"/>
      <sparseX i="43" alpha="111428.36852417915" sparseCutoff=".66224401202337135"/>
      <sparseX i="44" alpha="530633.25520180806" sparseCutoff="1.0000000000000000"/>
      <sparseX i="45" alpha="-56567.670681328062" sparseCutoff="1.0000000000000000"/>
      <sparseX i="46" alpha="103484.38785539767" sparseCutoff="1.0000000000000000"/>
      <sparseX i="47" alpha="-93499.762134500153" sparseCutoff="1.0000000000000000"/>
      <sparseX i="48" alpha="-90835.482322051146" sparseCutoff="1.0000000000000000"/>
      <sparseX i="49" alpha="48664.921677467923" sparseCutoff=".42159192476910357E-001"/>
      <sparseX i="50" alpha="-31076.283173547727" sparseCutoff=".42159192476910357E-001"/>
      <sparseX i="51" alpha="4490.2178620476279" sparseCutoff=".30626056075859220E-002"/>
      <sparseX i="52" alpha="27046.572140413755" sparseCutoff="1.0000000000000000"/>
      <sparseX i="53" alpha="-15362.629406512167" sparseCutoff="1.0000000000000000"/>
      <sparseX i="54" alpha="62968.701811234336" sparseCutoff="1.0000000000000000"/>
      <sparseX i="55" alpha="461.10769130865640" sparseCutoff=".30626056075859220E-002"/>
      <sparseX i="56" alpha="37719.202183735579" sparseCutoff=".78978195628428882"/>
      <sparseX i="57" alpha="-12654.748197283479" sparseCutoff="1.0000000000000000"/>
      <sparseX i="58" alpha="124600.96212326972" sparseCutoff="1.0000000000000000"/>
      <sparseX i="59" alpha="98402.344504200461" sparseCutoff="1.0000000000000000"/>
      <sparseX i="60" alpha="44596.225911252252" sparseCutoff=".99836741238704629"/>
      <sparseX i="61" alpha="17729.573465587753" sparseCutoff=".34956381006627807"/>
      <sparseX i="62" alpha="112590.88510372372" sparseCutoff=".34956381006627807"/>
      <sparseX i="63" alpha="250825.16903837712" sparseCutoff="1.0000000000000000"/>
      <sparseX i="64" alpha="105732.23475438608" sparseCutoff="1.0000000000000000"/>
      <sparseX i="65" alpha="5049.4812155775362" sparseCutoff=".30626056075859220E-002"/>
      <sparseX i="66" alpha="190499.81925597257" sparseCutoff="1.0000000000000000"/>
      <sparseX i="67" alpha="17157.493036464661" sparseCutoff=".76273743899761492E-001"/>
      <sparseX i="68" alpha="237338.40459774368" sparseCutoff="1.0000000000000000"/>
      <sparseX i="69" alpha="36570.745947310912" sparseCutoff="1.0000000000000000"/>
      <sparseX i="70" alpha="-36178.669523661083" sparseCutoff=".96316444562866699E-001"/>
      <sparseX i="71" alpha="7375.3969227610432" sparseCutoff="1.0000000000000000"/>
      <sparseX i="72" alpha="-4398.4779040178246" sparseCutoff="1.0000000000000000"/>
      <sparseX i="73" alpha="155477.81200432082" sparseCutoff="1.0000000000000000"/>
      <sparseX i="74" alpha="-114283.77006336785" sparseCutoff="1.0000000000000000"/>
      <sparseX i="75" alpha="-67689.415944322289" sparseCutoff="1.0000000000000000"/>
      <sparseX i="76" alpha="72261.834653130267" sparseCutoff="1.0000000000000000"/>
      <sparseX i="77" alpha="-173221.07639889888" sparseCutoff=".48435361886579503"/>
      <sparseX i="78" alpha="-192237.90255154792" sparseCutoff="1.0000000000000000"/>
      <sparseX i="79" alpha="-192512.41776219616" sparseCutoff="1.0000000000000000"/>
      <sparseX i="80" alpha="6032.5856759151648" sparseCutoff=".44882362973130252E-001"/>
      <sparseX i="81" alpha="-35051.787282654885" sparseCutoff="1.0000000000000000"/>
      <sparseX i="82" alpha="-4788.3418883300146" sparseCutoff=".20678888963287845E-001"/>
      <sparseX i="83" alpha="-3430.0979878882863" sparseCutoff=".87605053295015597E-003"/>
      <sparseX i="84" alpha="32385.193965445404" sparseCutoff=".93350287406154875"/>
      <sparseX i="85" alpha="76032.693825340975" sparseCutoff=".33648790631119396"/>
      <sparseX i="86" alpha="40762.697007673138" sparseCutoff=".79088157749097354"/>
      <sparseX i="87" alpha="-49062.669546576937" sparseCutoff=".26206864076025205"/>
      <sparseX i="88" alpha="-70044.111283962615" sparseCutoff="1.0000000000000000"/>
      <sparseX i="89" alpha="-50036.121001389838" sparseCutoff=".25743061444629900E-001"/>
      <sparseX i="90" alpha="42462.329016460171" sparseCutoff=".75029627445821023"/>
      <sparseX i="91" alpha="-232627.87182114407" sparseCutoff="1.0000000000000000"/>
      <sparseX i="92" alpha="25468.620270261850" sparseCutoff="1.0000000000000000"/>
      <sparseX i="93" alpha="-101286.57401570669" sparseCutoff="1.0000000000000000"/>
      <sparseX i="94" alpha="-119781.07028456728" sparseCutoff="1.0000000000000000"/>
      <sparseX i="95" alpha="26.278182508201489" sparseCutoff=".72478610319615111E-004"/>
      <sparseX i="96" alpha="-92086.049679334421" sparseCutoff="1.0000000000000000"/>
      <sparseX i="97" alpha="-473.99975353543931" sparseCutoff=".78887204355174978"/>
      <sparseX i="98" alpha="-71789.407732338819" sparseCutoff=".17058676901906933"/>
      <sparseX i="99" alpha="-70328.849111641990" sparseCutoff="1.0000000000000000"/>
      <sparseX i="100" alpha="35417.077321562232" sparseCutoff=".52952347169730118"/>
      <sparseX i="101" alpha="99205.975813924495" sparseCutoff=".70755184620473022"/>
      <sparseX i="102" alpha="85322.694202279366" sparseCutoff=".54739866262768477"/>
      <sparseX i="103" alpha="-72458.497108776603" sparseCutoff=".95377254014096868"/>
      <sparseX i="104" alpha="-43441.968438043143" sparseCutoff="1.0000000000000000"/>
      <sparseX i="105" alpha="-104182.43278254024" sparseCutoff="1.0000000000000000"/>
      <sparseX i="106" alpha="40289.017184783144" sparseCutoff=".73868378439197802"/>
      <sparseX i="107" alpha="21397.454218560943" sparseCutoff="1.0000000000000000"/>
      <sparseX i="108" alpha="-46534.521832653794" sparseCutoff=".91935201886132301"/>
      <sparseX i="109" alpha="-48418.453326062358" sparseCutoff=".91465252485337323"/>
      <sparseX i="110" alpha="-73351.097603699600" sparseCutoff=".78695442643053548"/>
      <sparseX i="111" alpha="-25777.629031621553" sparseCutoff="1.0000000000000000"/>
      <sparseX i="112" alpha="-34839.380234614269" sparseCutoff="1.0000000000000000"/>
      <sparseX i="113" alpha="-11994.380058912820" sparseCutoff=".91633419030624130"/>
      <sparseX i="114" alpha="52380.381655002624" sparseCutoff="1.0000000000000000"/>
      <sparseX i="115" alpha="53260.885155927092" sparseCutoff=".21318111853548610"/>
      <sparseX i="116" alpha="-3150.9141751315019" sparseCutoff=".35730142847810814"/>
      <sparseX i="117" alpha="-6239.1118579414524" sparseCutoff=".19635237571991476E-002"/>
      <sparseX i="118" alpha="255516.83831343430" sparseCutoff=".22583709467432056"/>
      <sparseX i="119" alpha="36371.170543244145" sparseCutoff="1.0000000000000000"/>
      <sparseX i="120" alpha="101984.52473294122" sparseCutoff=".26315804299610257"/>
      <sparseX i="121" alpha="-102673.66655112643" sparseCutoff=".13528305258454564E-001"/>
      <sparseX i="122" alpha="23940.157739935581" sparseCutoff=".24467443478350293"/>
      <sparseX i="123" alpha="147873.84834271891" sparseCutoff=".73439109804500158"/>
      <sparseX i="124" alpha="183809.90316864412" sparseCutoff="1.0000000000000000"/>
      <sparseX i="125" alpha="84632.889656290907" sparseCutoff="1.0000000000000000"/>
      <sparseX i="126" alpha="49840.890182804906" sparseCutoff="1.0000000000000000"/>
      <sparseX i="127" alpha="-64279.420422211908" sparseCutoff="1.0000000000000000"/>
      <sparseX i="128" alpha="162.18968001052846" sparseCutoff=".71452784413585491E-001"/>
      <sparseX i="129" alpha="-105497.40223422302" sparseCutoff=".74322870101080810E-001"/>
      <sparseX i="130" alpha="-248696.53362569481" sparseCutoff="1.0000000000000000"/>
      <sparseX i="131" alpha="-93701.162447446608" sparseCutoff=".16447562614417188"/>
      <sparseX i="132" alpha="-127460.14315096589" sparseCutoff=".64735904316301274E-001"/>
      <sparseX i="133" alpha="-114481.37007850880" sparseCutoff=".72287272902469435"/>
      <sparseX i="134" alpha="40352.180611515760" sparseCutoff="1.0000000000000000"/>
      <sparseX i="135" alpha="-70601.436336107305" sparseCutoff="1.0000000000000000"/>
      <sparseX i="136" alpha="103859.64962140884" sparseCutoff=".24051010757237806"/>
      <sparseX i="137" alpha="-191628.17217917019" sparseCutoff=".11798348781310877"/>
      <sparseX i="138" alpha="104966.39049760190" sparseCutoff=".67926901898892267"/>
      <sparseX i="139" alpha="101975.50158255438" sparseCutoff=".73573532724283142"/>
      <sparseX i="140" alpha="-130576.67846426887" sparseCutoff="1.0000000000000000"/>
      <sparseX i="141" alpha="-91318.284612269286" sparseCutoff="1.0000000000000000"/>
      <sparseX i="142" alpha="-76178.666557305856" sparseCutoff="1.0000000000000000"/>
      <sparseX i="143" alpha="9232.2699140535551" sparseCutoff="1.0000000000000000"/>
      <sparseX i="144" alpha="-81199.853360677414" sparseCutoff=".32521161715765162"/>
      <sparseX i="145" alpha="80742.548066960066" sparseCutoff=".25469239915608466"/>
      <sparseX i="146" alpha="-16641.830568846170" sparseCutoff="1.0000000000000000"/>
      <sparseX i="147" alpha="142057.86484623828" sparseCutoff="1.0000000000000000"/>
      <sparseX i="148" alpha="16542.015460090286" sparseCutoff=".46178469878709306E-001"/>
      <sparseX i="149" alpha="-138770.76323913157" sparseCutoff="1.0000000000000000"/>
      <sparseX i="150" alpha="-75657.760109670111" sparseCutoff="1.0000000000000000"/>
      <sparseX i="151" alpha="57147.522725878094" sparseCutoff=".15589588303136770"/>
      <sparseX i="152" alpha="-17175.537480792933" sparseCutoff=".81275814741583041"/>
      <sparseX i="153" alpha="-186680.55103052416" sparseCutoff=".91493317638916882"/>
      <sparseX i="154" alpha="-292152.13065818720" sparseCutoff="1.0000000000000000"/>
      <sparseX i="155" alpha="18.693044794876172" sparseCutoff=".10759053467757074E-004"/>
      <sparseX i="156" alpha="-348.00308450346637" sparseCutoff=".17350094439084196E-002"/>
      <sparseX i="157" alpha="18390.581790219545" sparseCutoff=".28614710496993101E-001"/>
      <sparseX i="158" alpha="75524.686207423933" sparseCutoff="1.0000000000000000"/>
      <sparseX i="159" alpha="58689.353201761929" sparseCutoff=".85480441169027310"/>
      <sparseX i="160" alpha="-31309.982974134622" sparseCutoff=".31148299351721975"/>
      <sparseX i="161" alpha="-219230.91494072601" sparseCutoff=".79014576593868469"/>
      <sparseX i="162" alpha="103452.49188147824" sparseCutoff="1.0000000000000000"/>
      <sparseX i="163" alpha="-11523.791062486582" sparseCutoff="1.0000000000000000"/>
      <sparseX i="164" alpha="89270.264400232860" sparseCutoff="1.0000000000000000"/>
      <sparseX i="165" alpha="-68183.633590086538" sparseCutoff="1.0000000000000000"/>
      <sparseX i="166" alpha="-55470.566523230358" sparseCutoff="1.0000000000000000"/>
      <sparseX i="167" alpha="114062.34816817527" sparseCutoff="1.0000000000000000"/>
      <sparseX i="168" alpha="115.98843827163873" sparseCutoff=".12915999388057875E-003"/>
      <sparseX i="169" alpha="107272.50810836717" sparseCutoff="1.0000000000000000"/>
      <sparseX i="170" alpha="-65630.236335568799" sparseCutoff="1.0000000000000000"/>
      <sparseX i="171" alpha="12923.968125138264" sparseCutoff=".47019308609502447"/>
      <sparseX i="172" alpha="132400.02714145096" sparseCutoff="1.0000000000000000"/>
      <sparseX i="173" alpha="1273.0904832100741" sparseCutoff=".13073516942181951E-002"/>
      <sparseX i="174" alpha="89673.675039184498" sparseCutoff="1.0000000000000000"/>
      <sparseX i="175" alpha="-63128.337214253384" sparseCutoff=".43447312916192288"/>
      <sparseX i="176" alpha="-91458.669770625682" sparseCutoff=".60020890967081675"/>
      <sparseX i="177" alpha="-67911.351762198756" sparseCutoff="1.0000000000000000"/>
      <sparseX i="178" alpha="1453.9101350571864" sparseCutoff=".70306693835214817E-003"/>
      <sparseX i="179" alpha="-917.24162291074390" sparseCutoff=".63318284136337777E-003"/>
      <sparseX i="180" alpha="9327.0395621509633" sparseCutoff=".45268231036890705"/>
      <sparseX i="181" alpha="-5515.4221202626632" sparseCutoff=".10366156069273881"/>
      <sparseX i="182" alpha="45141.665211038642" sparseCutoff=".46607678601713947E-002"/>
      <sparseX i="183" alpha="161404.40204359803" sparseCutoff=".13205240521762407"/>
      <sparseX i="184" alpha="-126549.84639867964" sparseCutoff=".39104946226026288"/>
      <sparseX i="185" alpha="-84855.909039948572" sparseCutoff="1.0000000000000000"/>
      <sparseX i="186" alpha="6615.9913752478105" sparseCutoff=".94794607593674196"/>
      <sparseX i="187" alpha="64107.528856634810" sparseCutoff="1.0000000000000000"/>
      <sparseX i="188" alpha="55830.481836659885" sparseCutoff="1.0000000000000000"/>
      <sparseX i="189" alpha="121492.63751660410" sparseCutoff=".79072615601528684"/>
      <sparseX i="190" alpha="-60437.735076455159" sparseCutoff=".58227065009717915E-001"/>
      <sparseX i="191" alpha="56315.191085032784" sparseCutoff="1.0000000000000000"/>
      <sparseX i="192" alpha="-4612.3698354198996" sparseCutoff=".36875436957941904"/>
      <sparseX i="193" alpha="108989.74118333732" sparseCutoff="1.0000000000000000"/>
      <sparseX i="194" alpha="-65020.534704491030" sparseCutoff=".88222549951439577E-001"/>
      <sparseX i="195" alpha="89269.076539181260" sparseCutoff=".15327114081728016"/>
      <sparseX i="196" alpha="2761.7850319792533" sparseCutoff=".11064012713472289E-002"/>
      <sparseX i="197" alpha="-1963.3098831751017" sparseCutoff=".57252048740043715"/>
      <sparseX i="198" alpha="84430.066522203066" sparseCutoff=".99205612519051023E-001"/>
      <sparseX i="199" alpha="-135650.70388585652" sparseCutoff=".67882054272905934"/>
      <sparseX i="200" alpha="-112817.14541124272" sparseCutoff="1.0000000000000000"/>
    </gpCoordinates>
    <gpCoordinates label="GAP_2024_8_30_120_8_42_16_2016" dimensions="3" signal_variance=".29999999999999999" signal_mean=".00000000000000000E+000" sparsified="T" n_permutations="2" covariance_type="1" n_sparseX="200" sparseX_filename="GAP.xml.sparseX.GAP_2024_8_30_120_8_42_16_2016" sparseX_md5sum="3a66454654028a9d92cbbe4e8c472143">
      <theta>  0.20000000000000000E+001  0.20000000000000000E+001  0.20000000000000000E+001 </theta>
      <descriptor> distance_Nb order=3 cutoff=3.5 n_sparse=200 covariance_type=ard_se delta=0.3 theta_uniform=2.0 sparse_method=uniform compact_clusters=T Z={6 6 14 }</descriptor>
      <permutation i="1">1 2 3  </permutation>
      <permutation i="2">1 3 2  </permutation>
      <sparseX i="1" alpha="-119272.64665925832" sparseCutoff=".75571581457609005"/>
      <sparseX i="2" alpha="120767.73609913439" sparseCutoff=".75571581457609005"/>
      <sparseX i="3" alpha="-27581.639474908920" sparseCutoff="1.0000000000000000"/>
      <sparseX i="4" alpha="-326103.43758115853" sparseCutoff=".75570219020521745"/>
      <sparseX i="5" alpha="-69430.690422086351" sparseCutoff=".71811757672299537"/>
      <sparseX i="6" alpha="61073.135072217527" sparseCutoff=".95024817910660642"/>
      <sparseX i="7" alpha="40692.309749858672" sparseCutoff=".68703129401503138"/>
      <sparseX i="8" alpha="40379.101254516281" sparseCutoff=".68694864439753978"/>
      <sparseX i="9" alpha="-10215.963651024438" sparseCutoff=".22895425606701087E-002"/>
      <sparseX i="10" alpha="10380.502882323022" sparseCutoff=".30479540405547456E-002"/>
      <sparseX i="11" alpha="-3174.4884103699533" sparseCutoff=".30479540405547456E-002"/>
      <sparseX i="12" alpha="-10785.458301010087" sparseCutoff=".30479540405547456E-002"/>
      <sparseX i="13" alpha="2825.2265069444916" sparseCutoff=".30479540405547456E-002"/>
      <sparseX i="14" alpha="-1352.9801697306375" sparseCutoff=".30660670972954551E-002"/>
      <sparseX i="15" alpha="-28374.551418554664" sparseCutoff=".23031867905321415E-002"/>
      <sparseX i="16" alpha="-10391.518781757193" sparseCutoff=".30660670972954551E-002"/>
      <sparseX i="17" alpha="-27251.188747385386" sparseCutoff=".28481931132521210E-002"/>
      <sparseX i="18" alpha="72.367754037013228" sparseCutoff=".30660670972954551E-002"/>
      <sparseX i="19" alpha="-9047.6438571637937" sparseCutoff=".27908191947505863E-002"/>
      <sparseX i="20" alpha="-100.80657262369679" sparseCutoff=".34086442800512950E-004"/>
      <sparseX i="21" alpha="15391.428814546993" sparseCutoff=".38921521396211535E-002"/>
      <sparseX i="22" alpha="32.204553955922101" sparseCutoff=".35396820666040324E-004"/>
      <sparseX i="23" alpha="256.32243402477462" sparseCutoff=".35565985108796134E-004"/>
      <sparseX i="24" alpha="-3624.0744469527558" sparseCutoff=".15977889489698121E-003"/>
      <sparseX i="25" alpha="-241349.48133480709" sparseCutoff=".34519094425922958"/>
      <sparseX i="26" alpha="264071.97708573600" sparseCutoff=".17907700730482295"/>
      <sparseX i="27" alpha="8437.2652939563741" sparseCutoff="1.0000000000000000"/>
      <sparseX i="28" alpha="-148945.90785977378" sparseCutoff=".17767136621572061"/>
      <sparseX i="29" alpha="21864.942418475275" sparseCutoff="1.0000000000000000"/>
      <sparseX i="30" alpha="-318054.30993847508" sparseCutoff="1.0000000000000000"/>
      <sparseX i="31" alpha="-113219.21505690039" sparseCutoff=".16932724595995929"/>
      <sparseX i="32" alpha="-9345.9780124875979" sparseCutoff=".16932312902951513"/>
      <sparseX i="33" alpha="-21471.449416013642" sparseCutoff="1.0000000000000000"/>
      <sparseX i="34" alpha="335269.40752862429" sparseCutoff="1.0000000000000000"/>
      <sparseX i="35" alpha="-145042.92676160292" sparseCutoff="1.0000000000000000"/>
      <sparseX i="36" alpha="-331111.03488505632" sparseCutoff="1.0000000000000000"/>
      <sparseX i="37" alpha="6275.1562491494151" sparseCutoff=".12896350308821908E-001"/>
      <sparseX i="38" alpha="17409.825615714355" sparseCutoff=".65117926241763924"/>
      <sparseX i="39" alpha="113342.80135196725" sparseCutoff=".81349280168026883"/>
      <sparseX i="40" alpha="-119242.73690113354" sparseCutoff=".66223490184496814"/>
      <sparseX i="41" alpha="-85980.742017575671" sparseCutoff=".19573841409235848"/>
      <sparseX i="42" alpha="202741.04111222315" sparseCutoff="1.0000000000000000"/>
      <sparseX i="43" alpha="86226.241879812776" sparseCutoff=".13401722536483607"/>
      <sparseX i="44" alpha="-26434.485549988884" sparseCutoff=".66224401202337135"/>
      <sparseX i="45" alpha="-38406.785148245268" sparseCutoff=".42159192476910357E-001"/>
      <sparseX i="46" alpha="191794.64850856891" sparseCutoff="1.0000000000000000"/>
      <sparseX i="47" alpha="-100671.19512859968" sparseCutoff=".99836741238704629"/>
      <sparseX i="48" alpha="31086.064617914650" sparseCutoff=".34956381006627807"/>
      <sparseX i="49" alpha="82239.343920806103" sparseCutoff="1.0000000000000000"/>
      <sparseX i="50" alpha="249750.93281327529" sparseCutoff=".34956381006627807"/>
      <sparseX i="51" alpha="-86796.888814786740" sparseCutoff="1.0000000000000000"/>
      <sparseX i="52" alpha="77351.672537493709" sparseCutoff=".76273743899761492E-001"/>
      <sparseX i="53" alpha="409179.50728218583" sparseCutoff="1.0000000000000000"/>
      <sparseX i="54" alpha="14022.276420761575" sparseCutoff=".30061572419066582E-001"/>
      <sparseX i="55" alpha="-43093.250892707401" sparseCutoff=".89935840543502588"/>
      <sparseX i="56" alpha="223744.09261139657" sparseCutoff=".82117806635368251"/>
      <sparseX i="57" alpha="-85701.891850355867" sparseCutoff=".91351787317283462"/>
      <sparseX i="58" alpha="317495.06767848408" sparseCutoff=".92740961383223008"/>
      <sparseX i="59" alpha="-43092.291351590786" sparseCutoff=".89935840543502588"/>
      <sparseX i="60" alpha="-85704.834324508978" sparseCutoff=".91351787317283462"/>
      <sparseX i="61" alpha="158129.15283032638" sparseCutoff=".92819257939175737"/>
      <sparseX i="62" alpha="95066.962315139332" sparseCutoff="1.0000000000000000"/>
      <sparseX i="63" alpha="68987.091467973834" sparseCutoff="1.0000000000000000"/>
      <sparseX i="64" alpha="219141.57596064321" sparseCutoff="1.0000000000000000"/>
      <sparseX i="65" alpha="-282696.30042510998" sparseCutoff="1.0000000000000000"/>
      <sparseX i="66" alpha="-8705.3441844964109" sparseCutoff=".11440564733366226"/>
      <sparseX i="67" alpha="14290.924354476345" sparseCutoff=".11440564733366226"/>
      <sparseX i="68" alpha="45921.534459522489" sparseCutoff=".82669942610200353"/>
      <sparseX i="69" alpha="-422111.18891249038" sparseCutoff="1.0000000000000000"/>
      <sparseX i="70" alpha="59948.030721454939" sparseCutoff="1.0000000000000000"/>
      <sparseX i="71" alpha="-36103.596139122412" sparseCutoff="1.0000000000000000"/>
      <sparseX i="72" alpha="-310329.51062155754" sparseCutoff=".69252101999809779"/>
      <sparseX i="73" alpha="-11160.291087630023" sparseCutoff=".99971909501970591"/>
      <sparseX i="74" alpha="-142393.28627458613" sparseCutoff=".99687053166092465"/>
      <sparseX i="75" alpha="-1462.5140463200814" sparseCutoff=".21026147499747516E-003"/>
      <sparseX i="76" alpha="235666.91599909347" sparseCutoff=".48873197671511820"/>
      <sparseX i="77" alpha="-2514.3663919200199" sparseCutoff=".52014303619518576"/>
      <sparseX i="78" alpha="235666.60321544239" sparseCutoff=".48873197671511820"/>
      <sparseX i="79" alpha="-2514.0211210818429" sparseCutoff=".52014303619518576"/>
      <sparseX i="80" alpha="77316.082462086226" sparseCutoff=".16123297377662055"/>
      <sparseX i="81" alpha="122313.51348127899" sparseCutoff="1.0000000000000000"/>
      <sparseX i="82" alpha="-134930.23893775317" sparseCutoff=".89887754234076322"/>
      <sparseX i="83" alpha="-90932.774075441819" sparseCutoff="1.0000000000000000"/>
      <sparseX i="84" alpha="1527.2830512052512" sparseCutoff=".33245603213011288E-003"/>
      <sparseX i="85" alpha="-192371.12038501404" sparseCutoff=".53617087488888493"/>
      <sparseX i="86" alpha="-193708.46714609192" sparseCutoff=".54469106961982916"/>
      <sparseX i="87" alpha="-297556.81282447430" sparseCutoff=".93784617431109851"/>
      <sparseX i="88" alpha="-299426.31341119483" sparseCutoff=".93871879089491594"/>
      <sparseX i="89" alpha="-209024.83893571360" sparseCutoff=".99901641458929824"/>
      <sparseX i="90" alpha="138335.31551023902" sparseCutoff="1.0000000000000000"/>
      <sparseX i="91" alpha="-29624.831644370526" sparseCutoff=".92493177671974758"/>
      <sparseX i="92" alpha="-363721.54432284163" sparseCutoff="1.0000000000000000"/>
      <sparseX i="93" alpha="-5759.0176040162733" sparseCutoff=".45133578453854406E-001"/>
      <sparseX i="94" alpha="253778.18100884825" sparseCutoff="1.0000000000000000"/>
      <sparseX i="95" alpha="159348.50343511422" sparseCutoff="1.0000000000000000"/>
      <sparseX i="96" alpha="-325349.09519928461" sparseCutoff="1.0000000000000000"/>
      <sparseX i="97" alpha="159346.66468787330" sparseCutoff="1.0000000000000000"/>
      <sparseX i="98" alpha="-6686.7267768940028" sparseCutoff=".45133578453854406E-001"/>
      <sparseX i="99" alpha="-21494.628935679706" sparseCutoff="1.0000000000000000"/>
      <sparseX i="100" alpha="-12773.403806675748" sparseCutoff="1.0000000000000000"/>
      <sparseX i="101" alpha="74893.797600757578" sparseCutoff="1.0000000000000000"/>
      <sparseX i="102" alpha="-36191.524533221229" sparseCutoff="1.0000000000000000"/>
      <sparseX i="103" alpha="22200.125212080875" sparseCutoff="1.0000000000000000"/>
      <sparseX i="104" alpha="3323.5031916610296" sparseCutoff=".18362464036484505E-001"/>
      <sparseX i="105" alpha="255527.78485955976" sparseCutoff=".92752800890564790"/>
      <sparseX i="106" alpha="-353364.39619611716" sparseCutoff="1.0000000000000000"/>
      <sparseX i="107" alpha="-225268.93247457143" sparseCutoff=".23344779382114780E-001"/>
      <sparseX i="108" alpha="184048.81905615612" sparseCutoff="1.0000000000000000"/>
      <sparseX i="109" alpha="14128.392413569816" sparseCutoff=".16357235830459085E-001"/>
      <sparseX i="110" alpha="197358.50726956298" sparseCutoff="1.0000000000000000"/>
      <sparseX i="111" alpha="74908.755444268900" sparseCutoff=".35734472173763077"/>
      <sparseX i="112" alpha="104582.99521963789" sparseCutoff="1.0000000000000000"/>
      <sparseX i="113" alpha="-24300.171161444981" sparseCutoff="1.0000000000000000"/>
      <sparseX i="114" alpha="218022.09394963810" sparseCutoff="1.0000000000000000"/>
      <sparseX i="115" alpha="-427627.85566240444" sparseCutoff=".54259067316623621"/>
      <sparseX i="116" alpha="-28381.242498727075" sparseCutoff="1.0000000000000000"/>
      <sparseX i="117" alpha="-52720.526217039936" sparseCutoff="1.0000000000000000"/>
      <sparseX i="118" alpha="70134.551136515569" sparseCutoff="1.0000000000000000"/>
      <sparseX i="119" alpha="-192514.57044148337" sparseCutoff=".52062904255265341"/>
      <sparseX i="120" alpha="-240154.48896185285" sparseCutoff="1.0000000000000000"/>
      <sparseX i="121" alpha="234753.54497245472" sparseCutoff="1.0000000000000000"/>
      <sparseX i="122" alpha="-176861.78757142613" sparseCutoff="1.0000000000000000"/>
      <sparseX i="123" alpha="210173.87932056715" sparseCutoff="1.0000000000000000"/>
      <sparseX i="124" alpha="80298.782582717497" sparseCutoff="1.0000000000000000"/>
      <sparseX i="125" alpha="-64102.446041818701" sparseCutoff=".43718014819749756"/>
      <sparseX i="126" alpha="17654.953823448639" sparseCutoff=".48614554050161601"/>
      <sparseX i="127" alpha="-63357.770417150445" sparseCutoff="1.0000000000000000"/>
      <sparseX i="128" alpha="28262.045829093433" sparseCutoff=".28247168259112293"/>
      <sparseX i="129" alpha="-17011.869421891119" sparseCutoff="1.0000000000000000"/>
      <sparseX i="130" alpha="-34800.732634704502" sparseCutoff=".55601061208358182"/>
      <sparseX i="131" alpha="-202867.49617468851" sparseCutoff="1.0000000000000000"/>
      <sparseX i="132" alpha="-50444.788629181072" sparseCutoff="1.0000000000000000"/>
      <sparseX i="133" alpha="-77007.902898330154" sparseCutoff=".63250162157860546"/>
      <sparseX i="134" alpha="50585.548001154260" sparseCutoff=".85446058666670122"/>
      <sparseX i="135" alpha="107461.26840446358" sparseCutoff=".43481916463525466"/>
      <sparseX i="136" alpha="-4196.0583176134005" sparseCutoff="1.0000000000000000"/>
      <sparseX i="137" alpha="-193562.53170836781" sparseCutoff=".26700892329405288E-001"/>
      <sparseX i="138" alpha="129857.05500408311" sparseCutoff="1.0000000000000000"/>
      <sparseX i="139" alpha="-42090.086026798912" sparseCutoff=".45501162607112788E-001"/>
      <sparseX i="140" alpha="-399766.11488480197" sparseCutoff=".26856580732816793"/>
      <sparseX i="141" alpha="430178.51360710594" sparseCutoff=".24025638356891010"/>
      <sparseX i="142" alpha="-261802.24038773560" sparseCutoff=".11198566829235199"/>
      <sparseX i="143" alpha="-50707.897777798280" sparseCutoff=".45042395823703058E-002"/>
      <sparseX i="144" alpha="-30.202953387374578" sparseCutoff=".53580555414878273E-004"/>
      <sparseX i="145" alpha="280703.83489135269" sparseCutoff=".50875611859334069"/>
      <sparseX i="146" alpha="-90341.308807665046" sparseCutoff="1.0000000000000000"/>
      <sparseX i="147" alpha="60433.291690543141" sparseCutoff="1.0000000000000000"/>
      <sparseX i="148" alpha="-51632.925150378032" sparseCutoff="1.0000000000000000"/>
      <sparseX i="149" alpha="-314257.13404993754" sparseCutoff=".37022768148972918"/>
      <sparseX i="150" alpha="-246919.67019652642" sparseCutoff="1.0000000000000000"/>
      <sparseX i="151" alpha="375946.15414252813" sparseCutoff=".36564789076649906"/>
      <sparseX i="152" alpha="211743.44225802884" sparseCutoff="1.0000000000000000"/>
      <sparseX i="153" alpha="195490.97156948922" sparseCutoff="1.0000000000000000"/>
      <sparseX i="154" alpha="-76243.828891120196" sparseCutoff=".97518060800598105"/>
      <sparseX i="155" alpha="93871.818505065734" sparseCutoff="1.0000000000000000"/>
      <sparseX i="156" alpha="-59825.542433037328" sparseCutoff="1.0000000000000000"/>
      <sparseX i="157" alpha="-127532.42985867146" sparseCutoff="1.0000000000000000"/>
      <sparseX i="158" alpha="26721.932232152798" sparseCutoff=".31371174024765958"/>
      <sparseX i="159" alpha="-31141.150899885219" sparseCutoff=".61008041994761231"/>
      <sparseX i="160" alpha="-238021.95151467019" sparseCutoff="1.0000000000000000"/>
      <sparseX i="161" alpha="13666.332913270857" sparseCutoff=".43226682000677696E-002"/>
      <sparseX i="162" alpha="-6991.9933958132033" sparseCutoff=".24820705198350668E-001"/>
      <sparseX i="163" alpha="-210268.99910142535" sparseCutoff="1.0000000000000000"/>
      <sparseX i="164" alpha="-160823.65419307162" sparseCutoff="1.0000000000000000"/>
      <sparseX i="165" alpha="111380.21272722352" sparseCutoff="1.0000000000000000"/>
      <sparseX i="166" alpha="195327.14323204115" sparseCutoff=".24016354626481690"/>
      <sparseX i="167" alpha="-312027.11405047536" sparseCutoff=".58873838232071818"/>
      <sparseX i="168" alpha="-18134.819468793423" sparseCutoff=".18493141409827440E-001"/>
      <sparseX i="169" alpha="344024.15395254066" sparseCutoff=".37994946767354681"/>
      <sparseX i="170" alpha="-16459.455902912137" sparseCutoff=".15861020405589676E-001"/>
      <sparseX i="171" alpha="13457.643935506359" sparseCutoff=".56870322710064503"/>
      <sparseX i="172" alpha="389965.63643285283" sparseCutoff=".52617642915411234"/>
      <sparseX i="173" alpha="-118340.34722847633" sparseCutoff=".98704915419373829"/>
      <sparseX i="174" alpha="193807.70233726941" sparseCutoff="1.0000000000000000"/>
      <sparseX i="175" alpha="170349.02854928942" sparseCutoff="1.0000000000000000"/>
      <sparseX i="176" alpha="145333.00450505529" sparseCutoff=".73510740770001759"/>
      <sparseX i="177" alpha="-114721.98008984778" sparseCutoff=".25343027146219954"/>
      <sparseX i="178" alpha="167121.72345344018" sparseCutoff="1.0000000000000000"/>
      <sparseX i="179" alpha="227418.75485095844" sparseCutoff=".92535726177375466"/>
      <sparseX i="180" alpha="-50580.496912337825" sparseCutoff=".79902654717198995"/>
      <sparseX i="181" alpha="-69604.628429011776" sparseCutoff=".51243693245681624E-002"/>
      <sparseX i="182" alpha="-99320.979228255339" sparseCutoff="1.0000000000000000"/>
      <sparseX i="183" alpha="18731.471758574364" sparseCutoff=".45509464680190924E-001"/>
      <sparseX i="184" alpha="-12372.374368370989" sparseCutoff="1.0000000000000000"/>
      <sparseX i="185" alpha="-96124.648720543773" sparseCutoff=".13337651659167526"/>
      <sparseX i="186" alpha="-39114.149008074295" sparseCutoff=".25156151758874268"/>
      <sparseX i="187" alpha="67027.328200483360" sparseCutoff=".99622958695307495"/>
      <sparseX i="188" alpha="222678.67681700972" sparseCutoff=".15034172280138169"/>
      <sparseX i="189" alpha="-181537.53417510208" sparseCutoff="1.0000000000000000"/>
      <sparseX i="190" alpha="184311.83626445249" sparseCutoff=".44225014777812677"/>
      <sparseX i="191" alpha="43964.842969598023" sparseCutoff="1.0000000000000000"/>
      <sparseX i="192" alpha="95131.388711615393" sparseCutoff="1.0000000000000000"/>
      <sparseX i="193" alpha="132874.23284846963" sparseCutoff="1.0000000000000000"/>
      <sparseX i="194" alpha="143414.05958864506" sparseCutoff="1.0000000000000000"/>
      <sparseX i="195" alpha="69900.396707140564" sparseCutoff="1.0000000000000000"/>
      <sparseX i="196" alpha="-40054.369921670070" sparseCutoff=".36258155877661735E-001"/>
      <sparseX i="197" alpha="20087.502352471216" sparseCutoff=".32679080369711344E-002"/>
      <sparseX i="198" alpha="5963.1255136282716" sparseCutoff=".91128951793319982E-003"/>
      <sparseX i="199" alpha="130061.79034342307" sparseCutoff=".65725577956341941"/>
      <sparseX i="200" alpha="-770.65680154483357" sparseCutoff=".17645014410365145E-002"/>
    </gpCoordinates>
    <gpCoordinates label="GAP_2024_8_30_120_8_42_16_2017" dimensions="3" signal_variance=".29999999999999999" signal_mean=".00000000000000000E+000" sparsified="T" n_permutations="6" covariance_type="1" n_sparseX="200" sparseX_filename="GAP.xml.sparseX.GAP_2024_8_30_120_8_42_16_2017" sparseX_md5sum="a852f52def6be6074eba1ce44dc16291">
      <theta>  0.20000000000000000E+001  0.20000000000000000E+001  0.20000000000000000E+001 </theta>
      <descriptor> distance_Nb order=3 cutoff=3.5 n_sparse=200 covariance_type=ard_se delta=0.3 theta_uniform=2.0 sparse_method=uniform compact_clusters=T Z={6 6 6 }</descriptor>
      <permutation i="1">1 2 3  </permutation>
      <permutation i="2">2 1 3  </permutation>
      <permutation i="3">1 3 2  </permutation>
      <permutation i="4">3 1 2  </permutation>
      <permutation i="5">2 3 1  </permutation>
      <permutation i="6">3 2 1  </permutation>
      <sparseX i="1" alpha="1542.2572500183535" sparseCutoff=".88554006192199974"/>
      <sparseX i="2" alpha="29366.173727185454" sparseCutoff=".86379297263246912"/>
      <sparseX i="3" alpha="-11487.886836957559" sparseCutoff=".86572487032370016"/>
      <sparseX i="4" alpha="131141.00914817583" sparseCutoff=".46019656060797898"/>
      <sparseX i="5" alpha="-13855.360460151529" sparseCutoff=".11926053808939641"/>
      <sparseX i="6" alpha="9589.0754817874385" sparseCutoff=".11926053808939641"/>
      <sparseX i="7" alpha="-4351.3107732284907" sparseCutoff=".25532395877042074"/>
      <sparseX i="8" alpha="-72210.289597341034" sparseCutoff=".25521874211765982"/>
      <sparseX i="9" alpha="2699.1161465065265" sparseCutoff=".25560300437833122"/>
      <sparseX i="10" alpha="-56800.594062253331" sparseCutoff=".11936437851565823"/>
      <sparseX i="11" alpha="-4251.3177530868152" sparseCutoff=".25560604437052720"/>
      <sparseX i="12" alpha="-72165.112569452554" sparseCutoff=".25560604437052720"/>
      <sparseX i="13" alpha="2674.1649464779239" sparseCutoff=".25582860114435824"/>
      <sparseX i="14" alpha="-82857.710937893295" sparseCutoff=".22788222412721723"/>
      <sparseX i="15" alpha="-82596.918820112885" sparseCutoff=".23169020892247319"/>
      <sparseX i="16" alpha="-180730.43435530030" sparseCutoff=".38819700439838289E-001"/>
      <sparseX i="17" alpha="-65980.159004285597" sparseCutoff=".13646115814573898"/>
      <sparseX i="18" alpha="4200.3733212217267" sparseCutoff=".70393803586473302"/>
      <sparseX i="19" alpha="10182.085264096935" sparseCutoff=".83259481912227540"/>
      <sparseX i="20" alpha="-15158.581106592133" sparseCutoff=".75366829790233214"/>
      <sparseX i="21" alpha="28491.182678301226" sparseCutoff=".75366829790233214"/>
      <sparseX i="22" alpha="28053.031550918946" sparseCutoff=".75366231103259573"/>
      <sparseX i="23" alpha="-41599.736586643456" sparseCutoff="1.0000000000000000"/>
      <sparseX i="24" alpha="4139.0323139737138" sparseCutoff=".40125851264891710"/>
      <sparseX i="25" alpha="320340.37717518664" sparseCutoff=".40126023415967726"/>
      <sparseX i="26" alpha="-54975.046579666778" sparseCutoff="1.0000000000000000"/>
      <sparseX i="27" alpha="20590.352083560818" sparseCutoff=".40125851264891710"/>
      <sparseX i="28" alpha="-181419.47467266876" sparseCutoff=".40125851264891710"/>
      <sparseX i="29" alpha="-97759.479262440858" sparseCutoff=".91597403905062258"/>
      <sparseX i="30" alpha="-38471.039245641507" sparseCutoff=".92405382665110580"/>
      <sparseX i="31" alpha="-72890.369412702668" sparseCutoff=".92475415487544188"/>
      <sparseX i="32" alpha="9873.3747295342291" sparseCutoff=".93055092994498279"/>
      <sparseX i="33" alpha="3990.4901840478369" sparseCutoff=".37339148209379042"/>
      <sparseX i="34" alpha="-5642.4266674351602" sparseCutoff=".61615916632767886E-002"/>
      <sparseX i="35" alpha="-4784.5695763781823" sparseCutoff="1.0000000000000000"/>
      <sparseX i="36" alpha="-38848.941373137131" sparseCutoff=".89427276712772497"/>
      <sparseX i="37" alpha="-121559.55996696198" sparseCutoff=".92579031172808146"/>
      <sparseX i="38" alpha="-4730.9069098556929" sparseCutoff=".97339972320589618"/>
      <sparseX i="39" alpha="-2071.1211931416874" sparseCutoff="1.0000000000000000"/>
      <sparseX i="40" alpha="-2985.1465429321861" sparseCutoff="1.0000000000000000"/>
      <sparseX i="41" alpha="-1930.5859154496020" sparseCutoff=".69574472650954777"/>
      <sparseX i="42" alpha="-129699.56119028288" sparseCutoff=".91750614253600182"/>
      <sparseX i="43" alpha="-2068.5242586725585" sparseCutoff="1.0000000000000000"/>
      <sparseX i="44" alpha="-2668.4730374180881" sparseCutoff=".27386820437884596"/>
      <sparseX i="45" alpha="7286.3209821998707" sparseCutoff=".18413064693841918"/>
      <sparseX i="46" alpha="-1855.3307301767713" sparseCutoff=".18222309901718436"/>
      <sparseX i="47" alpha="-31265.823830662557" sparseCutoff=".87970061473322225"/>
      <sparseX i="48" alpha="203669.49106092562" sparseCutoff="1.0000000000000000"/>
      <sparseX i="49" alpha="-1855.0479073395300" sparseCutoff=".18222309901718436"/>
      <sparseX i="50" alpha="54117.133610094825" sparseCutoff=".53241228268328100"/>
      <sparseX i="51" alpha="-2885.5761588165819" sparseCutoff=".29347325134868540"/>
      <sparseX i="52" alpha="11628.362579286064" sparseCutoff=".29347325134868540"/>
      <sparseX i="53" alpha="-10098.329115202747" sparseCutoff="1.0000000000000000"/>
      <sparseX i="54" alpha="-10126.244308436873" sparseCutoff="1.0000000000000000"/>
      <sparseX i="55" alpha="33171.532449326245" sparseCutoff=".40461228416016592"/>
      <sparseX i="56" alpha="47345.328752720103" sparseCutoff=".45494499312718284"/>
      <sparseX i="57" alpha="-24436.911115338884" sparseCutoff=".45424084819957766"/>
      <sparseX i="58" alpha="-147493.46275135386" sparseCutoff=".92191076652866277"/>
      <sparseX i="59" alpha="4220.0668600563577" sparseCutoff=".89181996222139870"/>
      <sparseX i="60" alpha="-52637.803700129763" sparseCutoff=".92634283569923093"/>
      <sparseX i="61" alpha="-26989.820638880192" sparseCutoff=".84561633517128554"/>
      <sparseX i="62" alpha="-60762.601895146894" sparseCutoff=".93880418916808694"/>
      <sparseX i="63" alpha="-4043.0666339731752" sparseCutoff=".20970083691086217E-001"/>
      <sparseX i="64" alpha="22914.388177653414" sparseCutoff=".20970083691086217E-001"/>
      <sparseX i="65" alpha="7229.9906638768807" sparseCutoff=".20970083691086217E-001"/>
      <sparseX i="66" alpha="-31829.804459949362" sparseCutoff="1.0000000000000000"/>
      <sparseX i="67" alpha="564.12415787701627" sparseCutoff=".12123827099044804E-002"/>
      <sparseX i="68" alpha="-800.26671194317885" sparseCutoff=".12075981988415863E-002"/>
      <sparseX i="69" alpha="-19.365357376537666" sparseCutoff=".12075981988415863E-002"/>
      <sparseX i="70" alpha="-88078.156650399105" sparseCutoff=".67917951519327457"/>
      <sparseX i="71" alpha="28462.246447319925" sparseCutoff=".60692004687106349"/>
      <sparseX i="72" alpha="-119583.15119363763" sparseCutoff=".62954191482151511"/>
      <sparseX i="73" alpha="-22311.755637449442" sparseCutoff=".45999355216172999"/>
      <sparseX i="74" alpha="-115449.87212719362" sparseCutoff=".43494960234726665"/>
      <sparseX i="75" alpha="482.35424281720151" sparseCutoff=".81965542456108065"/>
      <sparseX i="76" alpha="-40828.593290189310" sparseCutoff="1.0000000000000000"/>
      <sparseX i="77" alpha="126830.87734565408" sparseCutoff="1.0000000000000000"/>
      <sparseX i="78" alpha="-2353.2379260408184" sparseCutoff=".44973787409171373"/>
      <sparseX i="79" alpha="200413.28986260621" sparseCutoff="1.0000000000000000"/>
      <sparseX i="80" alpha="-6327.0935160565305" sparseCutoff=".37736086098664752E-001"/>
      <sparseX i="81" alpha="5892.1892246537063" sparseCutoff=".88783034392125371E-001"/>
      <sparseX i="82" alpha="-154133.11371463104" sparseCutoff="1.0000000000000000"/>
      <sparseX i="83" alpha="91573.686863962299" sparseCutoff="1.0000000000000000"/>
      <sparseX i="84" alpha="-72131.491078644816" sparseCutoff="1.0000000000000000"/>
      <sparseX i="85" alpha="-31923.993014905274" sparseCutoff="1.0000000000000000"/>
      <sparseX i="86" alpha="-7869.9169216426890" sparseCutoff="1.0000000000000000"/>
      <sparseX i="87" alpha="-203814.77751090634" sparseCutoff="1.0000000000000000"/>
      <sparseX i="88" alpha="116967.38645042793" sparseCutoff="1.0000000000000000"/>
      <sparseX i="89" alpha="-170450.35780068982" sparseCutoff="1.0000000000000000"/>
      <sparseX i="90" alpha="43722.601025264492" sparseCutoff="1.0000000000000000"/>
      <sparseX i="91" alpha="3310.5232466809571" sparseCutoff=".11279913733707259"/>
      <sparseX i="92" alpha="58616.195710499298" sparseCutoff="1.0000000000000000"/>
      <sparseX i="93" alpha="-7870.0102689979267" sparseCutoff="1.0000000000000000"/>
      <sparseX i="94" alpha="43554.680732163739" sparseCutoff="1.0000000000000000"/>
      <sparseX i="95" alpha="2392.4985149596055" sparseCutoff=".79762684826174934E-001"/>
      <sparseX i="96" alpha="-186866.66276827457" sparseCutoff=".36992059427124835"/>
      <sparseX i="97" alpha="4270.8581920555989" sparseCutoff=".55661868232081357E-001"/>
      <sparseX i="98" alpha="91189.315430001909" sparseCutoff="1.0000000000000000"/>
      <sparseX i="99" alpha="76044.679570061940" sparseCutoff="1.0000000000000000"/>
      <sparseX i="100" alpha="145804.34287618590" sparseCutoff="1.0000000000000000"/>
      <sparseX i="101" alpha="112612.22589271778" sparseCutoff="1.0000000000000000"/>
      <sparseX i="102" alpha="168117.05484489241" sparseCutoff="1.0000000000000000"/>
      <sparseX i="103" alpha="168118.02977489779" sparseCutoff="1.0000000000000000"/>
      <sparseX i="104" alpha="-118461.21132683035" sparseCutoff="1.0000000000000000"/>
      <sparseX i="105" alpha="1317.5087512481784" sparseCutoff="1.0000000000000000"/>
      <sparseX i="106" alpha="-123017.67811510983" sparseCutoff="1.0000000000000000"/>
      <sparseX i="107" alpha="-6881.6496614241760" sparseCutoff=".77550739944409131"/>
      <sparseX i="108" alpha="-22798.993336869906" sparseCutoff=".15894787602212762"/>
      <sparseX i="109" alpha="79337.491862930299" sparseCutoff="1.0000000000000000"/>
      <sparseX i="110" alpha="37369.239773749083" sparseCutoff="1.0000000000000000"/>
      <sparseX i="111" alpha="112179.40890269041" sparseCutoff="1.0000000000000000"/>
      <sparseX i="112" alpha="168116.99069726156" sparseCutoff="1.0000000000000000"/>
      <sparseX i="113" alpha="1315.6372596493379" sparseCutoff="1.0000000000000000"/>
      <sparseX i="114" alpha="-123016.58425317686" sparseCutoff="1.0000000000000000"/>
      <sparseX i="115" alpha="-82440.832136743586" sparseCutoff=".50418606064438753"/>
      <sparseX i="116" alpha="55110.165445970764" sparseCutoff=".81286829201713773"/>
      <sparseX i="117" alpha="1317.2561287561150" sparseCutoff="1.0000000000000000"/>
      <sparseX i="118" alpha="36340.694592525513" sparseCutoff="1.0000000000000000"/>
      <sparseX i="119" alpha="-156675.49489448318" sparseCutoff="1.0000000000000000"/>
      <sparseX i="120" alpha="-5606.6057437371273" sparseCutoff="1.0000000000000000"/>
      <sparseX i="121" alpha="-82926.533124595982" sparseCutoff="1.0000000000000000"/>
      <sparseX i="122" alpha="-5608.8517572180081" sparseCutoff="1.0000000000000000"/>
      <sparseX i="123" alpha="54764.920447352451" sparseCutoff="1.0000000000000000"/>
      <sparseX i="124" alpha="-117360.19299822229" sparseCutoff="1.0000000000000000"/>
      <sparseX i="125" alpha="38091.243466375730" sparseCutoff="1.0000000000000000"/>
      <sparseX i="126" alpha="151265.96856462880" sparseCutoff=".50418606064438753"/>
      <sparseX i="127" alpha="5822.5226928823076" sparseCutoff=".87382209476397077E-001"/>
      <sparseX i="128" alpha="-5231.7072089595549" sparseCutoff=".31547478819036245E-001"/>
      <sparseX i="129" alpha="137605.25894261673" sparseCutoff=".94309984303831795"/>
      <sparseX i="130" alpha="-3620.1694870614451" sparseCutoff="1.0000000000000000"/>
      <sparseX i="131" alpha="-100179.99645837296" sparseCutoff=".37369386335069155"/>
      <sparseX i="132" alpha="-202901.12624062519" sparseCutoff="1.0000000000000000"/>
      <sparseX i="133" alpha="190275.50160537049" sparseCutoff="1.0000000000000000"/>
      <sparseX i="134" alpha="-118349.77655509583" sparseCutoff=".45211393578631909"/>
      <sparseX i="135" alpha="-28510.449753643461" sparseCutoff=".75315387519300059"/>
      <sparseX i="136" alpha="-2022.9222352500703" sparseCutoff=".51133363119659769E-002"/>
      <sparseX i="137" alpha="205844.55830958040" sparseCutoff="1.0000000000000000"/>
      <sparseX i="138" alpha="-25599.279396439888" sparseCutoff=".60632060023492251E-001"/>
      <sparseX i="139" alpha="-92400.910495107542" sparseCutoff=".25991012414691539"/>
      <sparseX i="140" alpha="-579.75877965144366" sparseCutoff=".94219121632505010E-003"/>
      <sparseX i="141" alpha="159049.89685889392" sparseCutoff="1.0000000000000000"/>
      <sparseX i="142" alpha="-150741.15937673379" sparseCutoff="1.0000000000000000"/>
      <sparseX i="143" alpha="-408945.36310384516" sparseCutoff="1.0000000000000000"/>
      <sparseX i="144" alpha="-44857.694013367451" sparseCutoff="1.0000000000000000"/>
      <sparseX i="145" alpha="-103029.50776397782" sparseCutoff="1.0000000000000000"/>
      <sparseX i="146" alpha="164822.15147558067" sparseCutoff="1.0000000000000000"/>
      <sparseX i="147" alpha="51480.365053023583" sparseCutoff="1.0000000000000000"/>
      <sparseX i="148" alpha="-4345.5047156372266" sparseCutoff="1.0000000000000000"/>
      <sparseX i="149" alpha="1.4658462566312793" sparseCutoff=".72300995290763836E-006"/>
      <sparseX i="150" alpha="-52296.394810298989" sparseCutoff="1.0000000000000000"/>
      <sparseX i="151" alpha="81874.158576439091" sparseCutoff="1.0000000000000000"/>
      <sparseX i="152" alpha="-112645.32892429810" sparseCutoff=".42878788460503564"/>
      <sparseX i="153" alpha="-139165.66875623376" sparseCutoff="1.0000000000000000"/>
      <sparseX i="154" alpha="13414.377866782927" sparseCutoff=".76138502759296456E-002"/>
      <sparseX i="155" alpha="-89228.667103631698" sparseCutoff="1.0000000000000000"/>
      <sparseX i="156" alpha="-30939.229047962315" sparseCutoff=".99862816706996083"/>
      <sparseX i="157" alpha="55200.219765482085" sparseCutoff=".38258650981855769E-001"/>
      <sparseX i="158" alpha="-94289.918884835351" sparseCutoff="1.0000000000000000"/>
      <sparseX i="159" alpha="15421.184874612025" sparseCutoff="1.0000000000000000"/>
      <sparseX i="160" alpha="-128499.85579665673" sparseCutoff=".28844512680754963"/>
      <sparseX i="161" alpha="143330.97145192671" sparseCutoff="1.0000000000000000"/>
      <sparseX i="162" alpha="-18607.815012304844" sparseCutoff="1.0000000000000000"/>
      <sparseX i="163" alpha="-7782.1521871622090" sparseCutoff=".15882565757463696"/>
      <sparseX i="164" alpha="232342.22359691790" sparseCutoff=".65447607201361624"/>
      <sparseX i="165" alpha="-13546.813640583492" sparseCutoff="1.0000000000000000"/>
      <sparseX i="166" alpha="69727.270359972434" sparseCutoff=".12689429359011792"/>
      <sparseX i="167" alpha="-112.25215404831346" sparseCutoff=".13507924524284176E-002"/>
      <sparseX i="168" alpha="48333.935162085094" sparseCutoff="1.0000000000000000"/>
      <sparseX i="169" alpha="92980.513856628779" sparseCutoff="1.0000000000000000"/>
      <sparseX i="170" alpha="48451.961462539817" sparseCutoff=".32451221825597992"/>
      <sparseX i="171" alpha="60762.716026873204" sparseCutoff=".91467968273400024"/>
      <sparseX i="172" alpha="-43603.761415198212" sparseCutoff="1.0000000000000000"/>
      <sparseX i="173" alpha="-26884.286492754578" sparseCutoff=".28154621951044018"/>
      <sparseX i="174" alpha="-21427.508389673952" sparseCutoff=".88429618238270558E-001"/>
      <sparseX i="175" alpha="-50998.189607625391" sparseCutoff="1.0000000000000000"/>
      <sparseX i="176" alpha="2227.4531747721467" sparseCutoff=".13690190251526846E-002"/>
      <sparseX i="177" alpha="-168885.14578525751" sparseCutoff="1.0000000000000000"/>
      <sparseX i="178" alpha="64137.928433749337" sparseCutoff="1.0000000000000000"/>
      <sparseX i="179" alpha="41170.440269297687" sparseCutoff="1.0000000000000000"/>
      <sparseX i="180" alpha="-10194.635419483795" sparseCutoff="1.0000000000000000"/>
      <sparseX i="181" alpha="50621.902840823401" sparseCutoff=".56480408390000425"/>
      <sparseX i="182" alpha="4425.7555477369051" sparseCutoff="1.0000000000000000"/>
      <sparseX i="183" alpha="71575.538573672355" sparseCutoff="1.0000000000000000"/>
      <sparseX i="184" alpha="590.85166115087588" sparseCutoff=".33932139789910609E-003"/>
      <sparseX i="185" alpha="-54650.363613475602" sparseCutoff="1.0000000000000000"/>
      <sparseX i="186" alpha="5945.9173465424983" sparseCutoff="1.0000000000000000"/>
      <sparseX i="187" alpha="3536.3149054339310" sparseCutoff="1.0000000000000000"/>
      <sparseX i="188" alpha="259861.14916202702" sparseCutoff="1.0000000000000000"/>
      <sparseX i="189" alpha="80746.585293818440" sparseCutoff="1.0000000000000000"/>
      <sparseX i="190" alpha="29262.843724895261" sparseCutoff=".37086547986162655"/>
      <sparseX i="191" alpha="-105700.86042894659" sparseCutoff="1.0000000000000000"/>
      <sparseX i="192" alpha="-37502.668282261198" sparseCutoff="1.0000000000000000"/>
      <sparseX i="193" alpha="29321.759340029352" sparseCutoff=".60357390610265982"/>
      <sparseX i="194" alpha="40804.187347494350" sparseCutoff="1.0000000000000000"/>
      <sparseX i="195" alpha="37185.126122121750" sparseCutoff=".54889062950010137"/>
      <sparseX i="196" alpha="44096.575353693224" sparseCutoff="1.0000000000000000"/>
      <sparseX i="197" alpha="40170.242967438411" sparseCutoff="1.0000000000000000"/>
      <sparseX i="198" alpha="96718.047629120425" sparseCutoff="1.0000000000000000"/>
      <sparseX i="199" alpha="-136649.80329082327" sparseCutoff="1.0000000000000000"/>
      <sparseX i="200" alpha="31803.941480649079" sparseCutoff="1.0000000000000000"/>
    </gpCoordinates>
    <gpCoordinates label="GAP_2024_8_30_120_8_42_16_2018" dimensions="1225" signal_variance=".10000000000000001E+000" signal_mean=".00000000000000000E+000" sparsified="T" n_permutations="1" covariance_type="2" zeta="4.0000000000000000" n_sparseX="2000" sparseX_filename="GAP.xml.sparseX.GAP_2024_8_30_120_8_42_16_2018" sparseX_md5sum="14831319ac9a99a44117848486f10a58">
      <descriptor> soap atom_sigma=0.5 l_max=8 n_max=8 cutoff=4.5 cutoff_transition_width=1.0 delta=0.1 covariance_type=dot_product n_sparse=2000 zeta=4 n_species=2 Z=14 species_Z={14 6 }</descriptor>
      <permutation i="1">1  </permutation>
      <sparseX i="1" alpha="82722.190193780625" sparseCutoff="1.0000000000000000"/>
      <sparseX i="2" alpha="7091.2665848775814" sparseCutoff="1.0000000000000000"/>
      <sparseX i="3" alpha="23202.554263745042" sparseCutoff="1.0000000000000000"/>
      <sparseX i="4" alpha="-113152.60231294457" sparseCutoff="1.0000000000000000"/>
      <sparseX i="5" alpha="-12200.906283846092" sparseCutoff="1.0000000000000000"/>
      <sparseX i="6" alpha="-173002.52897155823" sparseCutoff="1.0000000000000000"/>
      <sparseX i="7" alpha="-12168.685653508681" sparseCutoff="1.0000000000000000"/>
      <sparseX i="8" alpha="-15838.679601346143" sparseCutoff="1.0000000000000000"/>
      <sparseX i="9" alpha="14513.174356036712" sparseCutoff="1.0000000000000000"/>
      <sparseX i="10" alpha="14357.990312946729" sparseCutoff="1.0000000000000000"/>
      <sparseX i="11" alpha="260195.76244308183" sparseCutoff="1.0000000000000000"/>
      <sparseX i="12" alpha="-100922.71177306006" sparseCutoff="1.0000000000000000"/>
      <sparseX i="13" alpha="-51763.122164649729" sparseCutoff="1.0000000000000000"/>
      <sparseX i="14" alpha="64106.074568479591" sparseCutoff="1.0000000000000000"/>
      <sparseX i="15" alpha="6411.8227331344624" sparseCutoff="1.0000000000000000"/>
      <sparseX i="16" alpha="-3025.7362902098880" sparseCutoff="1.0000000000000000"/>
      <sparseX i="17" alpha="-37349.885266536548" sparseCutoff="1.0000000000000000"/>
      <sparseX i="18" alpha="6882.5156854576198" sparseCutoff="1.0000000000000000"/>
      <sparseX i="19" alpha="-1617.8091856216445" sparseCutoff="1.0000000000000000"/>
      <sparseX i="20" alpha="71311.395081417024" sparseCutoff="1.0000000000000000"/>
      <sparseX i="21" alpha="233976.83634586938" sparseCutoff="1.0000000000000000"/>
      <sparseX i="22" alpha="64242.125111110632" sparseCutoff="1.0000000000000000"/>
      <sparseX i="23" alpha="-46258.068810711862" sparseCutoff="1.0000000000000000"/>
      <sparseX i="24" alpha="-1175.3269687340460" sparseCutoff="1.0000000000000000"/>
      <sparseX i="25" alpha="14234.170671414282" sparseCutoff="1.0000000000000000"/>
      <sparseX i="26" alpha="2091.0456670796175" sparseCutoff="1.0000000000000000"/>
      <sparseX i="27" alpha="-8743.0408478108584" sparseCutoff="1.0000000000000000"/>
      <sparseX i="28" alpha="505.27648139914601" sparseCutoff="1.0000000000000000"/>
      <sparseX i="29" alpha="-2118.3324839829529" sparseCutoff="1.0000000000000000"/>
      <sparseX i="30" alpha="-17271.993722760984" sparseCutoff="1.0000000000000000"/>
      <sparseX i="31" alpha="2358.4079564950462" sparseCutoff="1.0000000000000000"/>
      <sparseX i="32" alpha="1421.1798667903279" sparseCutoff="1.0000000000000000"/>
      <sparseX i="33" alpha="-10527.417233967684" sparseCutoff="1.0000000000000000"/>
      <sparseX i="34" alpha="-13470.557520967628" sparseCutoff="1.0000000000000000"/>
      <sparseX i="35" alpha="-1712.5185201465395" sparseCutoff="1.0000000000000000"/>
      <sparseX i="36" alpha="24161.183355806741" sparseCutoff="1.0000000000000000"/>
      <sparseX i="37" alpha="4417.3031032400631" sparseCutoff="1.0000000000000000"/>
      <sparseX i="38" alpha="-55680.935235122684" sparseCutoff="1.0000000000000000"/>
      <sparseX i="39" alpha="69699.702706602940" sparseCutoff="1.0000000000000000"/>
      <sparseX i="40" alpha="-17719.590756666217" sparseCutoff="1.0000000000000000"/>
      <sparseX i="41" alpha="1464.9997967646491" sparseCutoff="1.0000000000000000"/>
      <sparseX i="42" alpha="3280.2322505463244" sparseCutoff="1.0000000000000000"/>
      <sparseX i="43" alpha="3527.8585007332563" sparseCutoff="1.0000000000000000"/>
      <sparseX i="44" alpha="-19895.124669238474" sparseCutoff="1.0000000000000000"/>
      <sparseX i="45" alpha="-20929.563452598024" sparseCutoff="1.0000000000000000"/>
      <sparseX i="46" alpha="-12116.908543566837" sparseCutoff="1.0000000000000000"/>
      <sparseX i="47" alpha="4879.0009426078968" sparseCutoff="1.0000000000000000"/>
      <sparseX i="48" alpha="-8809.3545721449482" sparseCutoff="1.0000000000000000"/>
      <sparseX i="49" alpha="-13840.686929248157" sparseCutoff="1.0000000000000000"/>
      <sparseX i="50" alpha="-49620.584422614731" sparseCutoff="1.0000000000000000"/>
      <sparseX i="51" alpha="-62988.173610771992" sparseCutoff="1.0000000000000000"/>
      <sparseX i="52" alpha="-18309.868372748158" sparseCutoff="1.0000000000000000"/>
      <sparseX i="53" alpha="-14013.063049570419" sparseCutoff="1.0000000000000000"/>
      <sparseX i="54" alpha="463.21667323203155" sparseCutoff="1.0000000000000000"/>
      <sparseX i="55" alpha="10068.391309300052" sparseCutoff="1.0000000000000000"/>
      <sparseX i="56" alpha="-57248.556750089170" sparseCutoff="1.0000000000000000"/>
      <sparseX i="57" alpha="10931.374154915893" sparseCutoff="1.0000000000000000"/>
      <sparseX i="58" alpha="44831.314519662272" sparseCutoff="1.0000000000000000"/>
      <sparseX i="59" alpha="-41999.820353563802" sparseCutoff="1.0000000000000000"/>
      <sparseX i="60" alpha="-5237.6091275724284" sparseCutoff="1.0000000000000000"/>
      <sparseX i="61" alpha="5598.0529059157388" sparseCutoff="1.0000000000000000"/>
      <sparseX i="62" alpha="8169.5314963689671" sparseCutoff="1.0000000000000000"/>
      <sparseX i="63" alpha="-135490.56612401293" sparseCutoff="1.0000000000000000"/>
      <sparseX i="64" alpha="1446.6851492077958" sparseCutoff="1.0000000000000000"/>
      <sparseX i="65" alpha="-4733.6358012024766" sparseCutoff="1.0000000000000000"/>
      <sparseX i="66" alpha="-25317.135389937517" sparseCutoff="1.0000000000000000"/>
      <sparseX i="67" alpha="12134.901204538441" sparseCutoff="1.0000000000000000"/>
      <sparseX i="68" alpha="5451.0616786224737" sparseCutoff="1.0000000000000000"/>
      <sparseX i="69" alpha="3136.9943574155377" sparseCutoff="1.0000000000000000"/>
      <sparseX i="70" alpha="-145170.26470517917" sparseCutoff="1.0000000000000000"/>
      <sparseX i="71" alpha="36399.492367208601" sparseCutoff="1.0000000000000000"/>
      <sparseX i="72" alpha="6326.2255628759740" sparseCutoff="1.0000000000000000"/>
      <sparseX i="73" alpha="70507.330587710734" sparseCutoff="1.0000000000000000"/>
      <sparseX i="74" alpha="15870.004940881790" sparseCutoff="1.0000000000000000"/>
      <sparseX i="75" alpha="14237.324821009786" sparseCutoff="1.0000000000000000"/>
      <sparseX i="76" alpha="-40391.537421308967" sparseCutoff="1.0000000000000000"/>
      <sparseX i="77" alpha="2848.0399175270063" sparseCutoff="1.0000000000000000"/>
      <sparseX i="78" alpha="23309.048724696018" sparseCutoff="1.0000000000000000"/>
      <sparseX i="79" alpha="-151688.80753600347" sparseCutoff="1.0000000000000000"/>
      <sparseX i="80" alpha="9517.4746330079779" sparseCutoff="1.0000000000000000"/>
      <sparseX i="81" alpha="64390.902131947900" sparseCutoff="1.0000000000000000"/>
      <sparseX i="82" alpha="10438.331287146086" sparseCutoff="1.0000000000000000"/>
      <sparseX i="83" alpha="-12853.684414858628" sparseCutoff="1.0000000000000000"/>
      <sparseX i="84" alpha="-4238.5431386496030" sparseCutoff="1.0000000000000000"/>
      <sparseX i="85" alpha="-2609.3858366296572" sparseCutoff="1.0000000000000000"/>
      <sparseX i="86" alpha="-17018.556853079015" sparseCutoff="1.0000000000000000"/>
      <sparseX i="87" alpha="20586.234270975579" sparseCutoff="1.0000000000000000"/>
      <sparseX i="88" alpha="-52262.150351632808" sparseCutoff="1.0000000000000000"/>
      <sparseX i="89" alpha="-9747.6181919517858" sparseCutoff="1.0000000000000000"/>
      <sparseX i="90" alpha="99714.600366015540" sparseCutoff="1.0000000000000000"/>
      <sparseX i="91" alpha="-6330.8780636978845" sparseCutoff="1.0000000000000000"/>
      <sparseX i="92" alpha="5714.7642277121777" sparseCutoff="1.0000000000000000"/>
      <sparseX i="93" alpha="-6426.2499065973388" sparseCutoff="1.0000000000000000"/>
      <sparseX i="94" alpha="-5751.5076082536025" sparseCutoff="1.0000000000000000"/>
      <sparseX i="95" alpha="20748.985211116102" sparseCutoff="1.0000000000000000"/>
      <sparseX i="96" alpha="-19656.524650979347" sparseCutoff="1.0000000000000000"/>
      <sparseX i="97" alpha="33860.902251502812" sparseCutoff="1.0000000000000000"/>
      <sparseX i="98" alpha="-42807.189292090174" sparseCutoff="1.0000000000000000"/>
      <sparseX i="99" alpha="36665.752876359140" sparseCutoff="1.0000000000000000"/>
      <sparseX i="100" alpha="-1473.2837142841597" sparseCutoff="1.0000000000000000"/>
      <sparseX i="101" alpha="-4076.1562032527709" sparseCutoff="1.0000000000000000"/>
      <sparseX i="102" alpha="46728.849568739344" sparseCutoff="1.0000000000000000"/>
      <sparseX i="103" alpha="-31358.278505224713" sparseCutoff="1.0000000000000000"/>
      <sparseX i="104" alpha="-58018.061982568768" sparseCutoff="1.0000000000000000"/>
      <sparseX i="105" alpha="-50566.602691492284" sparseCutoff="1.0000000000000000"/>
      <sparseX i="106" alpha="3079.6212384739406" sparseCutoff="1.0000000000000000"/>
      <sparseX i="107" alpha="-1260.8974795531235" sparseCutoff="1.0000000000000000"/>
      <sparseX i="108" alpha="-10800.303451621261" sparseCutoff="1.0000000000000000"/>
      <sparseX i="109" alpha="5019.7752384996556" sparseCutoff="1.0000000000000000"/>
      <sparseX i="110" alpha="-455.43917452485448" sparseCutoff="1.0000000000000000"/>
      <sparseX i="111" alpha="6310.7287520180444" sparseCutoff="1.0000000000000000"/>
      <sparseX i="112" alpha="-262.18952436373411" sparseCutoff="1.0000000000000000"/>
      <sparseX i="113" alpha="-9459.9031740299833" sparseCutoff="1.0000000000000000"/>
      <sparseX i="114" alpha="7174.1424589362505" sparseCutoff="1.0000000000000000"/>
      <sparseX i="115" alpha="-2375.5642495577536" sparseCutoff="1.0000000000000000"/>
      <sparseX i="116" alpha="-98152.977730660728" sparseCutoff="1.0000000000000000"/>
      <sparseX i="117" alpha="6451.6873383541551" sparseCutoff="1.0000000000000000"/>
      <sparseX i="118" alpha="1392.4861995841659" sparseCutoff="1.0000000000000000"/>
      <sparseX i="119" alpha="-8212.7906570708838" sparseCutoff="1.0000000000000000"/>
      <sparseX i="120" alpha="-6709.8373370356312" sparseCutoff="1.0000000000000000"/>
      <sparseX i="121" alpha="241.64565912369326" sparseCutoff="1.0000000000000000"/>
      <sparseX i="122" alpha="1816.0315784611812" sparseCutoff="1.0000000000000000"/>
      <sparseX i="123" alpha="1252.8420257619148" sparseCutoff="1.0000000000000000"/>
      <sparseX i="124" alpha="2116.0788129605785" sparseCutoff="1.0000000000000000"/>
      <sparseX i="125" alpha="146426.47895194442" sparseCutoff="1.0000000000000000"/>
      <sparseX i="126" alpha="129423.41630551415" sparseCutoff="1.0000000000000000"/>
      <sparseX i="127" alpha="9301.5570108052161" sparseCutoff="1.0000000000000000"/>
      <sparseX i="128" alpha="548.35086566859786" sparseCutoff="1.0000000000000000"/>
      <sparseX i="129" alpha="1811.5762650790871" sparseCutoff="1.0000000000000000"/>
      <sparseX i="130" alpha="1096.4394011193413" sparseCutoff="1.0000000000000000"/>
      <sparseX i="131" alpha="-5442.3390698573367" sparseCutoff="1.0000000000000000"/>
      <sparseX i="132" alpha="-2200.1725588562440" sparseCutoff="1.0000000000000000"/>
      <sparseX i="133" alpha="-4225.4111866219482" sparseCutoff="1.0000000000000000"/>
      <sparseX i="134" alpha="-2619.9939314698609" sparseCutoff="1.0000000000000000"/>
      <sparseX i="135" alpha="-4467.5412520864911" sparseCutoff="1.0000000000000000"/>
      <sparseX i="136" alpha="-6549.1454251718769" sparseCutoff="1.0000000000000000"/>
      <sparseX i="137" alpha="34859.960232145619" sparseCutoff="1.0000000000000000"/>
      <sparseX i="138" alpha="9269.3495880325427" sparseCutoff="1.0000000000000000"/>
      <sparseX i="139" alpha="77049.172830717289" sparseCutoff="1.0000000000000000"/>
      <sparseX i="140" alpha="2961.9188011855244" sparseCutoff="1.0000000000000000"/>
      <sparseX i="141" alpha="-397.79029296938819" sparseCutoff="1.0000000000000000"/>
      <sparseX i="142" alpha="-2120.4334908515652" sparseCutoff="1.0000000000000000"/>
      <sparseX i="143" alpha="-6035.3430375091430" sparseCutoff="1.0000000000000000"/>
      <sparseX i="144" alpha="5013.1993790415727" sparseCutoff="1.0000000000000000"/>
      <sparseX i="145" alpha="8426.2491376739654" sparseCutoff="1.0000000000000000"/>
      <sparseX i="146" alpha="2043.4860095239276" sparseCutoff="1.0000000000000000"/>
      <sparseX i="147" alpha="-5901.6718045298958" sparseCutoff="1.0000000000000000"/>
      <sparseX i="148" alpha="-5558.3745207927595" sparseCutoff="1.0000000000000000"/>
      <sparseX i="149" alpha="1764.3908790606529" sparseCutoff="1.0000000000000000"/>
      <sparseX i="150" alpha="-2865.2372560868575" sparseCutoff="1.0000000000000000"/>
      <sparseX i="151" alpha="10210.736645889734" sparseCutoff="1.0000000000000000"/>
      <sparseX i="152" alpha="-1576.4944890271593" sparseCutoff="1.0000000000000000"/>
      <sparseX i="153" alpha="-3067.4907515188070" sparseCutoff="1.0000000000000000"/>
      <sparseX i="154" alpha="-18028.692750850376" sparseCutoff="1.0000000000000000"/>
      <sparseX i="155" alpha="-7646.5680834003824" sparseCutoff="1.0000000000000000"/>
      <sparseX i="156" alpha="49541.914821584534" sparseCutoff="1.0000000000000000"/>
      <sparseX i="157" alpha="-904.56574716731461" sparseCutoff="1.0000000000000000"/>
      <sparseX i="158" alpha="-11922.986301845427" sparseCutoff="1.0000000000000000"/>
      <sparseX i="159" alpha="-4890.3797477523040" sparseCutoff="1.0000000000000000"/>
      <sparseX i="160" alpha="203.01409152570889" sparseCutoff="1.0000000000000000"/>
      <sparseX i="161" alpha="-1241.4997293500467" sparseCutoff="1.0000000000000000"/>
      <sparseX i="162" alpha="1504.7196980034848" sparseCutoff="1.0000000000000000"/>
      <sparseX i="163" alpha="-16414.077787829428" sparseCutoff="1.0000000000000000"/>
      <sparseX i="164" alpha="44226.671781427816" sparseCutoff="1.0000000000000000"/>
      <sparseX i="165" alpha="-252.14046049999388" sparseCutoff="1.0000000000000000"/>
      <sparseX i="166" alpha="500.50379455204813" sparseCutoff="1.0000000000000000"/>
      <sparseX i="167" alpha="-1886.6914835789028" sparseCutoff="1.0000000000000000"/>
      <sparseX i="168" alpha="-90547.658915267108" sparseCutoff="1.0000000000000000"/>
      <sparseX i="169" alpha="41886.608760137118" sparseCutoff="1.0000000000000000"/>
      <sparseX i="170" alpha="684.27235744958625" sparseCutoff="1.0000000000000000"/>
